{"learner":{"attributes":{"best_iteration":"671","best_score":"0.5493081581382334"},"feature_names":["year","month","day","dayofweek","is_weekend","h_item","h_branch","h_invoice","h_item_branch","h_item_month","date_key","qty_lag_1","qty_lag_2","qty_lag_3","qty_lag_7","qty_lag_14","qty_roll_mean_3","qty_roll_std_3","qty_roll_min_3","qty_roll_max_3","qty_roll_mean_7","qty_roll_std_7","qty_roll_min_7","qty_roll_max_7","qty_roll_mean_14","qty_roll_std_14","qty_roll_min_14","qty_roll_max_14","qty_roll_mean_30","qty_roll_std_30","qty_roll_min_30","qty_roll_max_30","qty_diff_1","qty_diff_7","month_sin","month_cos","dow_sin","dow_cos"],"feature_types":["int","int","int","int","int","int","int","int","int","int","int","float","float","float","float","float","float","float","float","float","float","float","float","float","float","float","float","float","float","float","float","float","float","float","float","float","float","float"],"gradient_booster":{"model":{"cats":{"enc":[],"feature_segments":[],"sorted_idx":[]},"gbtree_model_param":{"num_parallel_tree":"1","num_trees":"822"},"iteration_indptr":[0,1,2,3,4,5,6,7,8,9,10,11,12,13,14,15,16,17,18,19,20,21,22,23,24,25,26,27,28,29,30,31,32,33,34,35,36,37,38,39,40,41,42,43,44,45,46,47,48,49,50,51,52,53,54,55,56,57,58,59,60,61,62,63,64,65,66,67,68,69,70,71,72,73,74,75,76,77,78,79,80,81,82,83,84,85,86,87,88,89,90,91,92,93,94,95,96,97,98,99,100,101,102,103,104,105,106,107,108,109,110,111,112,113,114,115,116,117,118,119,120,121,122,123,124,125,126,127,128,129,130,131,132,133,134,135,136,137,138,139,140,141,142,143,144,145,146,147,148,149,150,151,152,153,154,155,156,157,158,159,160,161,162,163,164,165,166,167,168,169,170,171,172,173,174,175,176,177,178,179,180,181,182,183,184,185,186,187,188,189,190,191,192,193,194,195,196,197,198,199,200,201,202,203,204,205,206,207,208,209,210,211,212,213,214,215,216,217,218,219,220,221,222,223,224,225,226,227,228,229,230,231,232,233,234,235,236,237,238,239,240,241,242,243,244,245,246,247,248,249,250,251,252,253,254,255,256,257,258,259,260,261,262,263,264,265,266,267,268,269,270,271,272,273,274,275,276,277,278,279,280,281,282,283,284,285,286,287,288,289,290,291,292,293,294,295,296,297,298,299,300,301,302,303,304,305,306,307,308,309,310,311,312,313,314,315,316,317,318,319,320,321,322,323,324,325,326,327,328,329,330,331,332,333,334,335,336,337,338,339,340,341,342,343,344,345,346,347,348,349,350,351,352,353,354,355,356,357,358,359,360,361,362,363,364,365,366,367,368,369,370,371,372,373,374,375,376,377,378,379,380,381,382,383,384,385,386,387,388,389,390,391,392,393,394,395,396,397,398,399,400,401,402,403,404,405,406,407,408,409,410,411,412,413,414,415,416,417,418,419,420,421,422,423,424,425,426,427,428,429,430,431,432,433,434,435,436,437,438,439,440,441,442,443,444,445,446,447,448,449,450,451,452,453,454,455,456,457,458,459,460,461,462,463,464,465,466,467,468,469,470,471,472,473,474,475,476,477,478,479,480,481,482,483,484,485,486,487,488,489,490,491,492,493,494,495,496,497,498,499,500,501,502,503,504,505,506,507,508,509,510,511,512,513,514,515,516,517,518,519,520,521,522,523,524,525,526,527,528,529,530,531,532,533,534,535,536,537,538,539,540,541,542,543,544,545,546,547,548,549,550,551,552,553,554,555,556,557,558,559,560,561,562,563,564,565,566,567,568,569,570,571,572,573,574,575,576,577,578,579,580,581,582,583,584,585,586,587,588,589,590,591,592,593,594,595,596,597,598,599,600,601,602,603,604,605,606,607,608,609,610,611,612,613,614,615,616,617,618,619,620,621,622,623,624,625,626,627,628,629,630,631,632,633,634,635,636,637,638,639,640,641,642,643,644,645,646,647,648,649,650,651,652,653,654,655,656,657,658,659,660,661,662,663,664,665,666,667,668,669,670,671,672,673,674,675,676,677,678,679,680,681,682,683,684,685,686,687,688,689,690,691,692,693,694,695,696,697,698,699,700,701,702,703,704,705,706,707,708,709,710,711,712,713,714,715,716,717,718,719,720,721,722,723,724,725,726,727,728,729,730,731,732,733,734,735,736,737,738,739,740,741,742,743,744,745,746,747,748,749,750,751,752,753,754,755,756,757,758,759,760,761,762,763,764,765,766,767,768,769,770,771,772,773,774,775,776,777,778,779,780,781,782,783,784,785,786,787,788,789,790,791,792,793,794,795,796,797,798,799,800,801,802,803,804,805,806,807,808,809,810,811,812,813,814,815,816,817,818,819,820,821,822],"tree_info":[0,0,0,0,0,0,0,0,0,0,0,0,0,0,0,0,0,0,0,0,0,0,0,0,0,0,0,0,0,0,0,0,0,0,0,0,0,0,0,0,0,0,0,0,0,0,0,0,0,0,0,0,0,0,0,0,0,0,0,0,0,0,0,0,0,0,0,0,0,0,0,0,0,0,0,0,0,0,0,0,0,0,0,0,0,0,0,0,0,0,0,0,0,0,0,0,0,0,0,0,0,0,0,0,0,0,0,0,0,0,0,0,0,0,0,0,0,0,0,0,0,0,0,0,0,0,0,0,0,0,0,0,0,0,0,0,0,0,0,0,0,0,0,0,0,0,0,0,0,0,0,0,0,0,0,0,0,0,0,0,0,0,0,0,0,0,0,0,0,0,0,0,0,0,0,0,0,0,0,0,0,0,0,0,0,0,0,0,0,0,0,0,0,0,0,0,0,0,0,0,0,0,0,0,0,0,0,0,0,0,0,0,0,0,0,0,0,0,0,0,0,0,0,0,0,0,0,0,0,0,0,0,0,0,0,0,0,0,0,0,0,0,0,0,0,0,0,0,0,0,0,0,0,0,0,0,0,0,0,0,0,0,0,0,0,0,0,0,0,0,0,0,0,0,0,0,0,0,0,0,0,0,0,0,0,0,0,0,0,0,0,0,0,0,0,0,0,0,0,0,0,0,0,0,0,0,0,0,0,0,0,0,0,0,0,0,0,0,0,0,0,0,0,0,0,0,0,0,0,0,0,0,0,0,0,0,0,0,0,0,0,0,0,0,0,0,0,0,0,0,0,0,0,0,0,0,0,0,0,0,0,0,0,0,0,0,0,0,0,0,0,0,0,0,0,0,0,0,0,0,0,0,0,0,0,0,0,0,0,0,0,0,0,0,0,0,0,0,0,0,0,0,0,0,0,0,0,0,0,0,0,0,0,0,0,0,0,0,0,0,0,0,0,0,0,0,0,0,0,0,0,0,0,0,0,0,0,0,0,0,0,0,0,0,0,0,0,0,0,0,0,0,0,0,0,0,0,0,0,0,0,0,0,0,0,0,0,0,0,0,0,0,0,0,0,0,0,0,0,0,0,0,0,0,0,0,0,0,0,0,0,0,0,0,0,0,0,0,0,0,0,0,0,0,0,0,0,0,0,0,0,0,0,0,0,0,0,0,0,0,0,0,0,0,0,0,0,0,0,0,0,0,0,0,0,0,0,0,0,0,0,0,0,0,0,0,0,0,0,0,0,0,0,0,0,0,0,0,0,0,0,0,0,0,0,0,0,0,0,0,0,0,0,0,0,0,0,0,0,0,0,0,0,0,0,0,0,0,0,0,0,0,0,0,0,0,0,0,0,0,0,0,0,0,0,0,0,0,0,0,0,0,0,0,0,0,0,0,0,0,0,0,0,0,0,0,0,0,0,0,0,0,0,0,0,0,0,0,0,0,0,0,0,0,0,0,0,0,0,0,0,0,0,0,0,0,0,0,0,0,0,0,0,0,0,0,0,0,0,0,0,0,0,0,0,0,0,0,0,0,0,0,0,0,0,0,0,0,0,0,0,0,0,0,0,0,0,0,0,0,0,0,0,0,0,0,0,0,0,0,0,0,0,0,0,0,0,0,0,0,0,0,0,0,0,0,0,0,0,0,0,0,0,0,0,0,0,0,0,0,0,0,0,0,0,0,0,0,0,0,0,0,0,0,0,0,0,0,0,0,0,0,0,0,0,0,0,0,0,0,0,0,0,0,0,0,0,0,0,0,0,0,0,0,0,0,0,0,0,0,0,0,0,0,0,0,0,0,0,0,0,0,0,0,0,0,0,0,0,0,0,0,0,0,0,0,0,0,0,0,0,0],"trees":[{"base_weights":[1.7564232E-3,3.8875848E-1,-7.590957E-1,7.5161326E-1,2.327654E-2,-6.0099185E-1,-9.8177E-2,9.8801666E-1,5.0509846E-1,2.0852146E-1,-3.4610164E-1,-1.8302965E-1,-9.628844E-1,3.7356326E-1,1.1215838E0,6.020787E-1,1.240699E-1,3.590647E-1,-2.2451735E-1,-1.1406082E-1,-7.814277E-1,-1.1174744E-2,-4.081212E-1,2.1047965E-1,-1.0742782E0,2.1727061E-1,7.1838444E-1,1.5036594E0,1.0562284E0,3.0614913E-1,6.6724247E-1,8.671109E-1,-5.6872764E-3,7.952526E-1,2.4840459E-1,3.814051E-2,-5.30276E-1,2.5633442E-1,-2.7789122E-1,-6.246302E-2,-8.5214686E-1,3.050986E-1,-1.298919E-1,-7.318434E-2,-7.4664074E-1,3.2846066E-1,-5.972505E-1,-7.993373E-1,-1.4067545E0,-1.8800607E-2,1.582577E-2,4.3989774E-2,1.2449773E-4,1.1370323E-2,7.745723E-2,5.7446744E-2,4.2423893E-2,2.4323516E-2,1.0020339E-3,4.6712708E-2,2.9308025E-2,2.4324873E-2,7.0566595E-2,7.387224E-3,-1.758497E-2,4.6013687E-2,1.9477712E-2,3.6539424E-2,9.9013485E-3,2.7182076E-2,-3.3598642E-3,-1.5944205E-2,-5.1635135E-2,-1.9045567E-2,2.2083677E-2,-3.7316572E-2,-9.44291E-3,-1.9648712E-2,4.3792374E-2,-2.7651122E-2,-5.028057E-2,5.0268914E-3,3.1963352E-2,-1.1786324E-2,1.4766693E-2,1.7096661E-2,-1.42915845E-2,-4.3366306E-2,-1.6572904E-2,1.9605802E-3,2.8425429E-2,-5.329751E-2,7.1988637E-3,-4.3983582E-2,-1.9424742E-2,-7.530683E-2,-3.393645E-2],"categories":[],"categories_nodes":[],"categories_segments":[],"categories_sizes":[],"default_left":[0,0,0,0,0,0,0,0,0,0,0,0,0,0,0,0,0,0,0,0,0,0,0,0,0,0,0,0,0,0,0,0,0,0,0,0,0,0,0,0,0,0,0,0,0,0,0,0,0,0,0,0,0,0,0,0,0,0,0,0,0,0,0,0,0,0,0,0,0,0,0,0,0,0,0,0,0,0,0,0,0,0,0,0,0,0,0,0,0,0,0,0,0,0,0,0,0],"id":0,"left_children":[1,3,5,7,9,11,-1,13,15,17,19,21,23,25,27,29,31,33,35,37,39,41,43,45,47,49,51,53,55,57,59,61,63,65,67,69,71,73,75,77,79,81,83,85,87,89,91,93,95,-1,-1,-1,-1,-1,-1,-1,-1,-1,-1,-1,-1,-1,-1,-1,-1,-1,-1,-1,-1,-1,-1,-1,-1,-1,-1,-1,-1,-1,-1,-1,-1,-1,-1,-1,-1,-1,-1,-1,-1,-1,-1,-1,-1,-1,-1,-1,-1],"loss_changes":[2.8763499E3,8.5860754E2,6.245431E2,1.8819861E2,2.2101604E2,4.403324E2,0E0,1.349425E2,5.8710144E1,1.4042357E2,1.08702255E2,5.236267E1,2.0460669E2,1.57015E1,3.0512085E1,2.3994873E1,3.1555367E1,7.6601E1,4.474444E1,4.2996826E1,1.8848038E1,2.8997173E1,6.628586E1,1.3417709E1,1.2791223E2,1.2521848E1,1.0555546E1,1.0357361E1,2.0341309E1,1.1963831E1,2.1252808E1,8.5114975E0,1.4970978E1,1.5491348E1,3.0654854E1,1.6137072E1,2.6527893E1,2.6020752E1,2.0092571E1,1.1752052E1,1.4374496E1,1.4199821E1,2.5423195E1,2.6414127E1,1.3897583E1,8.289625E0,6.672576E0,2.5115173E1,4.4246094E1,0E0,0E0,0E0,0E0,0E0,0E0,0E0,0E0,0E0,0E0,0E0,0E0,0E0,0E0,0E0,0E0,0E0,0E0,0E0,0E0,0E0,0E0,0E0,0E0,0E0,0E0,0E0,0E0,0E0,0E0,0E0,0E0,0E0,0E0,0E0,0E0,0E0,0E0,0E0,0E0,0E0,0E0,0E0,0E0,0E0,0E0,0E0,0E0],"parents":[2147483647,0,0,1,1,2,2,3,3,4,4,5,5,7,7,8,8,9,9,10,10,11,11,12,12,13,13,14,14,15,15,16,16,17,17,18,18,19,19,20,20,21,21,22,22,23,23,24,24,25,25,26,26,27,27,28,28,29,29,30,30,31,31,32,32,33,33,34,34,35,35,36,36,37,37,38,38,39,39,40,40,41,41,42,42,43,43,44,44,45,45,46,46,47,47,48,48],"right_children":[2,4,6,8,10,12,-1,14,16,18,20,22,24,26,28,30,32,34,36,38,40,42,44,46,48,50,52,54,56,58,60,62,64,66,68,70,72,74,76,78,80,82,84,86,88,90,92,94,96,-1,-1,-1,-1,-1,-1,-1,-1,-1,-1,-1,-1,-1,-1,-1,-1,-1,-1,-1,-1,-1,-1,-1,-1,-1,-1,-1,-1,-1,-1,-1,-1,-1,-1,-1,-1,-1,-1,-1,-1,-1,-1,-1,-1,-1,-1,-1,-1],"split_conditions":[4E0,4.857143E0,1.65E2,3.2E0,4E0,1E1,-9.8177E-2,2.0250526E7,4E0,8E0,1.0076923E1,7.5925927E0,1E0,3.558E3,2.1538463E0,2.0250516E7,3.8E0,2.6666667E0,1.8E1,6.3E0,2.85E2,1.1E1,1E0,3.637037E1,1.76E1,2.025043E7,5E0,1E0,5.9E1,5.9E1,2E0,3.2145503E0,7.185185E0,1E0,-2.2252093E-1,7.87E2,1.3571428E1,1.7E1,5.8809996E0,2.25E2,1.2357142E1,7E0,2.0250826E7,6.234898E-1,1.416E3,2.366E3,2.1E2,1.58E2,1.58E2,-1.8800607E-2,1.582577E-2,4.3989774E-2,1.2449773E-4,1.1370323E-2,7.745723E-2,5.7446744E-2,4.2423893E-2,2.4323516E-2,1.0020339E-3,4.6712708E-2,2.9308025E-2,2.4324873E-2,7.0566595E-2,7.387224E-3,-1.758497E-2,4.6013687E-2,1.9477712E-2,3.6539424E-2,9.9013485E-3,2.7182076E-2,-3.3598642E-3,-1.5944205E-2,-5.1635135E-2,-1.9045567E-2,2.2083677E-2,-3.7316572E-2,-9.44291E-3,-1.9648712E-2,4.3792374E-2,-2.7651122E-2,-5.028057E-2,5.0268914E-3,3.1963352E-2,-1.1786324E-2,1.4766693E-2,1.7096661E-2,-1.42915845E-2,-4.3366306E-2,-1.6572904E-2,1.9605802E-3,2.8425429E-2,-5.329751E-2,7.1988637E-3,-4.3983582E-2,-1.9424742E-2,-7.530683E-2,-3.393645E-2],"split_indices":[18,20,6,20,15,20,0,10,15,11,24,28,11,9,24,10,24,16,19,28,5,2,15,28,28,10,19,11,6,6,11,21,28,14,37,7,24,31,29,31,28,2,10,37,5,7,23,6,6,0,0,0,0,0,0,0,0,0,0,0,0,0,0,0,0,0,0,0,0,0,0,0,0,0,0,0,0,0,0,0,0,0,0,0,0,0,0,0,0,0,0,0,0,0,0,0,0],"split_type":[0,0,0,0,0,0,0,0,0,0,0,0,0,0,0,0,0,0,0,0,0,0,0,0,0,0,0,0,0,0,0,0,0,0,0,0,0,0,0,0,0,0,0,0,0,0,0,0,0,0,0,0,0,0,0,0,0,0,0,0,0,0,0,0,0,0,0,0,0,0,0,0,0,0,0,0,0,0,0,0,0,0,0,0,0,0,0,0,0,0,0,0,0,0,0,0,0],"sum_hessian":[9.764627E3,6.473193E3,3.291434E3,3.2470732E3,3.2261196E3,2.9122344E3,3.7919965E2,1.6542526E3,1.5928208E3,2.1493516E3,1.0767683E3,1.3529518E3,1.5592826E3,2.968742E2,1.3573784E3,1.2685293E3,3.2429147E2,1.5953207E3,5.540307E2,7.0417645E2,3.725918E2,7.686441E2,5.843077E2,1.3496408E2,1.4243186E3,2.067249E2,9.014932E1,1.9161702E2,1.1657614E3,2.3125548E2,1.0372738E3,4.663671E1,2.7765475E2,3.201422E2,1.2751785E3,2.9878607E2,2.5524466E2,2.1541554E2,4.8876093E2,3.3830944E1,3.3876086E2,2.0869072E2,5.599534E2,2.9507922E2,2.892285E2,1.1890652E2,1.6057558E1,7.835073E2,6.408112E2,2.8681662E1,1.7804323E2,7.307557E1,1.7073746E1,7.0827365E0,1.8453427E2,7.9946625E2,3.6629514E2,1.4077884E2,9.047665E1,2.3642458E2,8.0084924E2,2.9780588E1,1.6856125E1,1.929515E2,8.470326E1,2.4259903E2,7.75432E1,1.1783818E2,1.1573403E3,5.0253616E1,2.4853246E2,1.8209717E2,7.314749E1,4.793886E1,1.6747668E2,7.55216E1,4.1323932E2,2.595684E1,7.8741045E0,1.1821046E2,2.205504E2,1.3124825E2,7.744248E1,4.4926273E2,1.1069069E2,9.938313E1,1.9569609E2,2.2221587E2,6.70126E1,5.517088E1,6.3735638E1,9.383095E0,6.674463E0,6.532483E2,1.3025903E2,5.6183997E2,7.897124E1],"tree_param":{"num_deleted":"0","num_feature":"38","num_nodes":"97","size_leaf_vector":"1"}},{"base_weights":[3.2331003E-3,3.7178758E-1,-7.201277E-1,8.1255573E-1,1.1230236E-1,-5.6608003E-1,-9.355528E-2,1.0407833E0,6.478552E-1,2.8388673E-1,-2.6592332E-1,-1.6157338E-1,-9.307653E-1,4.4181108E-1,1.1817318E0,8.126952E-1,5.0121E-1,4.421288E-1,-7.8681625E-2,-1.6096126E-2,-6.9323975E-1,2.1078725E-1,-2.674524E-1,2.6193E-1,-1.0432879E0,6.4887327E-1,2.1179877E-1,1.3122965E0,1.0083717E0,4.1607717E-1,9.2207015E-1,5.987093E-1,1.1908089E-1,7.826445E-1,3.4388742E-1,2.1671051E-1,-3.173914E-1,2.6972228E-1,-2.1227838E-1,-7.808084E-1,-2.5014913E-1,4.8293513E-1,-6.811293E-2,-5.8500543E-2,-5.8573014E-1,3.5886416E-1,-3.9888624E-2,-7.948464E-1,-1.3390436E0,4.450315E-2,8.807774E-3,-2.3929406E-2,1.908429E-2,3.4925744E-3,6.664282E-2,5.1907904E-2,-4.0827873E-3,3.79177E-2,6.7506777E-3,5.938406E-2,4.081925E-2,-1.792959E-2,3.1615585E-2,-2.8966209E-2,9.438798E-3,-2.2259893E-2,4.0378075E-2,2.632992E-2,1.13563435E-2,1.6956659E-2,-1.8344391E-2,-8.714627E-3,-4.0040314E-2,9.582623E-3,5.8170944E-2,-5.902092E-3,-2.7247522E-2,-4.1721206E-2,-3.3489154E-3,-3.3778574E-3,-7.7523425E-2,-1.1681744E-2,3.0724594E-2,-2.4673566E-2,6.2740953E-3,9.998867E-3,-1.1185582E-2,2.2734268E-2,-3.0779636E-2,6.68756E-3,3.1328518E-2,-3.142519E-2,-4.9398255E-2,-7.103366E-2,-3.7114102E-2],"categories":[],"categories_nodes":[],"categories_segments":[],"categories_sizes":[],"default_left":[0,0,0,0,0,0,0,0,0,0,0,0,0,0,0,0,0,0,0,0,0,0,0,0,0,0,0,0,0,0,0,0,0,0,0,0,0,0,0,0,0,0,0,0,0,0,0,0,0,0,0,0,0,0,0,0,0,0,0,0,0,0,0,0,0,0,0,0,0,0,0,0,0,0,0,0,0,0,0,0,0,0,0,0,0,0,0,0,0,0,0,0,0,0,0],"id":1,"left_children":[1,3,5,7,9,11,-1,13,15,17,19,21,23,25,27,29,31,33,35,37,39,41,43,45,47,49,51,53,55,57,59,61,63,65,67,69,71,73,75,77,79,81,83,85,87,89,-1,91,93,-1,-1,-1,-1,-1,-1,-1,-1,-1,-1,-1,-1,-1,-1,-1,-1,-1,-1,-1,-1,-1,-1,-1,-1,-1,-1,-1,-1,-1,-1,-1,-1,-1,-1,-1,-1,-1,-1,-1,-1,-1,-1,-1,-1,-1,-1],"loss_changes":[2.599349E3,7.3849286E2,5.811328E2,8.843677E1,2.6416983E2,4.281848E2,0E0,8.317883E1,3.2788574E1,1.607378E2,1.355345E2,5.4526516E1,2.0560254E2,8.865963E0,1.5405884E1,2.7446686E1,2.7507767E1,6.456775E1,6.0237247E1,4.5186848E1,1.7685638E1,2.336668E1,7.139917E1,1.4210604E1,1.0024451E2,1.1067333E1,1.1495425E1,1.126593E1,1.1823608E1,1.3664429E1,1.2187286E1,1.952768E1,7.6737676E0,1.4055511E1,3.2044937E1,2.7529095E1,3.22957E1,2.2295269E1,1.4791563E1,1.4727509E1,1.8729149E1,1.4986595E1,1.2752651E1,2.792278E1,1.3807404E1,7.198839E0,0E0,2.313507E1,2.8572388E1,0E0,0E0,0E0,0E0,0E0,0E0,0E0,0E0,0E0,0E0,0E0,0E0,0E0,0E0,0E0,0E0,0E0,0E0,0E0,0E0,0E0,0E0,0E0,0E0,0E0,0E0,0E0,0E0,0E0,0E0,0E0,0E0,0E0,0E0,0E0,0E0,0E0,0E0,0E0,0E0,0E0,0E0,0E0,0E0,0E0,0E0],"parents":[2147483647,0,0,1,1,2,2,3,3,4,4,5,5,7,7,8,8,9,9,10,10,11,11,12,12,13,13,14,14,15,15,16,16,17,17,18,18,19,19,20,20,21,21,22,22,23,23,24,24,25,25,26,26,27,27,28,28,29,29,30,30,31,31,32,32,33,33,34,34,35,35,36,36,37,37,38,38,39,39,40,40,41,41,42,42,43,43,44,44,45,45,47,47,48,48],"right_children":[2,4,6,8,10,12,-1,14,16,18,20,22,24,26,28,30,32,34,36,38,40,42,44,46,48,50,52,54,56,58,60,62,64,66,68,70,72,74,76,78,80,82,84,86,88,90,-1,92,94,-1,-1,-1,-1,-1,-1,-1,-1,-1,-1,-1,-1,-1,-1,-1,-1,-1,-1,-1,-1,-1,-1,-1,-1,-1,-1,-1,-1,-1,-1,-1,-1,-1,-1,-1,-1,-1,-1,-1,-1,-1,-1,-1,-1,-1,-1],"split_conditions":[4E0,4E0,1.65E2,2.6E0,4E0,1.0142858E1,-9.355528E-2,1E0,3.8E0,7E0,9.214286E0,1E0,1E0,5.9E1,2.1666667E0,6E0,4E0,4E0,4E0,6.3E0,1.58E2,4E0,8.130435E0,3.6E2,1.76E1,-5E-1,6.1E1,9.6E1,3.1E1,4E0,1.287E3,5E0,-4E0,2.309401E0,6.234898E-1,2.4E1,1.3571428E1,1.0023781E1,2.6E1,1.757E3,1.65E2,4.266667E0,4.5710053E0,6.234898E-1,4E0,2.787E3,-3.9888624E-2,7E0,1.58E2,4.450315E-2,8.807774E-3,-2.3929406E-2,1.908429E-2,3.4925744E-3,6.664282E-2,5.1907904E-2,-4.0827873E-3,3.79177E-2,6.7506777E-3,5.938406E-2,4.081925E-2,-1.792959E-2,3.1615585E-2,-2.8966209E-2,9.438798E-3,-2.2259893E-2,4.0378075E-2,2.632992E-2,1.13563435E-2,1.6956659E-2,-1.8344391E-2,-8.714627E-3,-4.0040314E-2,9.582623E-3,5.8170944E-2,-5.902092E-3,-2.7247522E-2,-4.1721206E-2,-3.3489154E-3,-3.3778574E-3,-7.7523425E-2,-1.1681744E-2,3.0724594E-2,-2.4673566E-2,6.2740953E-3,9.998867E-3,-1.1185582E-2,2.2734268E-2,-3.0779636E-2,6.68756E-3,3.1328518E-2,-3.142519E-2,-4.9398255E-2,-7.103366E-2,-3.7114102E-2],"split_indices":[18,20,6,20,15,20,0,12,24,16,24,12,11,6,20,1,15,19,11,28,6,3,28,31,28,35,6,5,2,3,7,1,33,21,37,12,24,21,2,5,6,28,29,37,20,7,0,18,6,0,0,0,0,0,0,0,0,0,0,0,0,0,0,0,0,0,0,0,0,0,0,0,0,0,0,0,0,0,0,0,0,0,0,0,0,0,0,0,0,0,0,0,0,0,0],"split_type":[0,0,0,0,0,0,0,0,0,0,0,0,0,0,0,0,0,0,0,0,0,0,0,0,0,0,0,0,0,0,0,0,0,0,0,0,0,0,0,0,0,0,0,0,0,0,0,0,0,0,0,0,0,0,0,0,0,0,0,0,0,0,0,0,0,0,0,0,0,0,0,0,0,0,0,0,0,0,0,0,0,0,0,0,0,0,0,0,0,0,0,0,0,0,0],"sum_hessian":[9.746197E3,6.457296E3,3.2889014E3,2.3910872E3,4.0662087E3,2.9033813E3,3.8551993E2,9.9753906E2,1.393548E3,2.797754E3,1.2684547E3,1.3780343E3,1.525347E3,1.9173302E2,8.05806E2,6.5147577E2,7.4207227E2,1.947576E3,8.501779E2,8.019249E2,4.665298E2,3.0443964E2,1.0735946E3,1.3119437E2,1.3941527E3,9.875487E1,9.297814E1,4.518117E2,3.539943E2,1.4309688E2,5.083789E2,5.901115E2,1.5196072E2,4.327309E2,1.5148452E3,3.798709E2,4.7030698E2,3.2588412E2,4.760408E2,3.8808246E2,7.844733E1,1.5352599E2,1.5091365E2,6.4972614E2,4.2386853E2,1.2149768E2,9.696688E0,7.6187427E2,6.3227844E2,6.408182E1,3.4673046E1,1.7527416E1,7.545073E1,7.5772038E0,4.4423453E2,3.447602E2,9.234102E0,6.283043E1,8.026644E1,1.3860664E2,3.6977225E2,1.9254353E1,5.708572E2,1.2331273E1,1.3962946E2,7.8560777E0,4.2487482E2,5.8755005E2,9.272951E2,3.1483618E2,6.503473E1,3.651457E2,1.0516128E2,3.020399E2,2.3844227E1,3.733045E2,1.0273632E2,3.6052548E2,2.7556993E1,7.070034E1,7.7469907E0,2.3455482E1,1.300705E2,4.6395023E1,1.0451862E2,2.5295071E2,3.9677542E2,1.0939362E1,4.1292917E2,6.783137E1,5.3666317E1,4.1416257E2,3.4771167E2,5.536212E2,7.865723E1],"tree_param":{"num_deleted":"0","num_feature":"38","num_nodes":"95","size_leaf_vector":"1"}},{"base_weights":[-7.1971864E-4,3.4459615E-1,-6.804296E-1,7.688265E-1,9.3890056E-2,-5.327139E-1,-8.9719824E-2,9.9048495E-1,6.118409E-1,2.4832222E-1,-2.4194652E-1,-1.6148065E-1,-8.6985135E-1,4.1750666E-1,1.129446E0,4.0828407E-1,7.321253E-1,3.9966065E-1,-9.9934906E-2,2.4479632E-1,-4.1218486E-1,1.824958E-1,-2.559115E-1,4.867084E-2,-1.0173787E0,-4.3470215E-2,5.783039E-1,1.4249859E0,1.0449636E0,5.940066E-1,2.1635641E-1,9.095634E-1,5.417722E-1,7.234802E-1,2.9981336E-1,1.542607E-1,-2.9949102E-1,2.8577474E-1,-6.711107E-2,-2.13064E-1,-6.259079E-1,4.2061594E-1,-3.1704056E-1,-5.959441E-2,-5.639097E-1,2.325724E-1,-7.8964794E-1,-7.807564E-1,-1.2874715E0,-1.4161645E-2,3.1450815E-2,1.7452221E-2,4.674856E-2,2.5926653E-2,7.317694E-2,5.287791E-2,-1.1851429E-3,-6.9456645E-3,3.2767642E-2,6.9232406E-3,3.76082E-2,5.531022E-2,3.82962E-2,3.6601882E-2,1.3918321E-2,4.1579697E-2,2.2153698E-2,1.0307145E-2,2.2011628E-2,1.4069452E-2,-2.3001494E-2,-7.248477E-3,-4.2089313E-2,2.1449687E-2,-2.660199E-3,-1.7501193E-3,-2.2031924E-2,-3.575342E-2,-9.753151E-3,3.3874977E-2,6.422331E-3,2.8763076E-2,-2.044036E-2,8.217782E-3,-1.0210691E-2,-1.6751302E-2,-3.6041263E-2,1.7038556E-2,-2.3751123E-2,7.2730593E-3,-4.7624163E-2,-4.852872E-2,-2.9582476E-2,-6.811156E-2,-3.5655383E-2],"categories":[],"categories_nodes":[],"categories_segments":[],"categories_sizes":[],"default_left":[0,0,0,0,0,0,0,0,0,0,0,0,0,0,0,0,0,0,0,0,0,0,0,0,0,0,0,0,0,0,0,0,0,0,0,0,0,0,0,0,0,0,0,0,0,0,0,0,0,0,0,0,0,0,0,0,0,0,0,0,0,0,0,0,0,0,0,0,0,0,0,0,0,0,0,0,0,0,0,0,0,0,0,0,0,0,0,0,0,0,0,0,0,0,0],"id":2,"left_children":[1,3,5,7,9,11,-1,13,15,17,19,21,23,25,27,29,31,33,35,37,39,41,43,45,47,49,51,53,55,57,59,61,63,65,67,69,71,73,-1,75,77,79,81,83,85,87,89,91,93,-1,-1,-1,-1,-1,-1,-1,-1,-1,-1,-1,-1,-1,-1,-1,-1,-1,-1,-1,-1,-1,-1,-1,-1,-1,-1,-1,-1,-1,-1,-1,-1,-1,-1,-1,-1,-1,-1,-1,-1,-1,-1,-1,-1,-1,-1],"loss_changes":[2.2833506E3,6.8585004E2,5.371421E2,8.1991455E1,2.1053398E2,3.6213873E2,0E0,7.77088E1,3.376117E1,1.4664319E2,1.061787E2,4.4963715E1,2.0581287E2,1.4669209E1,1.6630981E1,1.84749E1,2.866507E1,6.2145782E1,4.2899845E1,2.2282196E1,4.000569E1,3.5775875E1,6.545889E1,3.2964657E1,8.135071E1,8.789382E0,1.1156006E1,4.260895E0,8.582275E0,1.2230293E1,1.0677498E1,1.092334E1,2.1082298E1,1.293663E1,1.929184E1,2.9300472E1,3.9334362E1,1.5900085E1,0E0,1.9947395E1,1.7150894E1,1.4988266E1,8.424386E0,2.1605772E1,1.4561356E1,1.3734537E1,6.214237E0,2.3903473E1,2.3927917E1,0E0,0E0,0E0,0E0,0E0,0E0,0E0,0E0,0E0,0E0,0E0,0E0,0E0,0E0,0E0,0E0,0E0,0E0,0E0,0E0,0E0,0E0,0E0,0E0,0E0,0E0,0E0,0E0,0E0,0E0,0E0,0E0,0E0,0E0,0E0,0E0,0E0,0E0,0E0,0E0,0E0,0E0,0E0,0E0,0E0,0E0],"parents":[2147483647,0,0,1,1,2,2,3,3,4,4,5,5,7,7,8,8,9,9,10,10,11,11,12,12,13,13,14,14,15,15,16,16,17,17,18,18,19,19,20,20,21,21,22,22,23,23,24,24,25,25,26,26,27,27,28,28,29,29,30,30,31,31,32,32,33,33,34,34,35,35,36,36,37,37,39,39,40,40,41,41,42,42,43,43,44,44,45,45,46,46,47,47,48,48],"right_children":[2,4,6,8,10,12,-1,14,16,18,20,22,24,26,28,30,32,34,36,38,40,42,44,46,48,50,52,54,56,58,60,62,64,66,68,70,72,74,-1,76,78,80,82,84,86,88,90,92,94,-1,-1,-1,-1,-1,-1,-1,-1,-1,-1,-1,-1,-1,-1,-1,-1,-1,-1,-1,-1,-1,-1,-1,-1,-1,-1,-1,-1,-1,-1,-1,-1,-1,-1,-1,-1,-1,-1,-1,-1,-1,-1,-1,-1,-1,-1],"split_conditions":[4E0,4E0,1.65E2,2.6E0,4E0,1.0142858E1,-8.9719824E-2,1E0,7E0,7E0,6.3E0,1E0,1E0,1.531E3,2.1538463E0,5E0,3.9285715E0,2.6666667E0,4E0,1.65E2,9.3E0,6E0,8.172414E0,1.1E1,1.76E1,1.616666E1,4.3388373E-1,1E0,3E0,5E0,5E0,6.234898E-1,2E0,2.4E1,4.3388373E-1,2.4E1,1.3714286E1,2E0,-6.711107E-2,4E0,1.58E2,5.9E1,-8.660254E-1,6.234898E-1,1E0,3.637037E1,7.7477155E0,1E0,1.58E2,-1.4161645E-2,3.1450815E-2,1.7452221E-2,4.674856E-2,2.5926653E-2,7.317694E-2,5.287791E-2,-1.1851429E-3,-6.9456645E-3,3.2767642E-2,6.9232406E-3,3.76082E-2,5.531022E-2,3.82962E-2,3.6601882E-2,1.3918321E-2,4.1579697E-2,2.2153698E-2,1.0307145E-2,2.2011628E-2,1.4069452E-2,-2.3001494E-2,-7.248477E-3,-4.2089313E-2,2.1449687E-2,-2.660199E-3,-1.7501193E-3,-2.2031924E-2,-3.575342E-2,-9.753151E-3,3.3874977E-2,6.422331E-3,2.8763076E-2,-2.044036E-2,8.217782E-3,-1.0210691E-2,-1.6751302E-2,-3.6041263E-2,1.7038556E-2,-2.3751123E-2,7.2730593E-3,-4.7624163E-2,-4.852872E-2,-2.9582476E-2,-6.811156E-2,-3.5655383E-2],"split_indices":[18,20,6,20,15,20,0,12,1,16,28,12,12,8,24,3,24,16,11,6,24,3,28,11,28,29,36,13,18,1,13,37,15,2,36,12,24,26,0,3,6,6,35,37,15,28,29,15,6,0,0,0,0,0,0,0,0,0,0,0,0,0,0,0,0,0,0,0,0,0,0,0,0,0,0,0,0,0,0,0,0,0,0,0,0,0,0,0,0,0,0,0,0,0,0],"split_type":[0,0,0,0,0,0,0,0,0,0,0,0,0,0,0,0,0,0,0,0,0,0,0,0,0,0,0,0,0,0,0,0,0,0,0,0,0,0,0,0,0,0,0,0,0,0,0,0,0,0,0,0,0,0,0,0,0,0,0,0,0,0,0,0,0,0,0,0,0,0,0,0,0,0,0,0,0,0,0,0,0,0,0,0,0,0,0,0,0,0,0,0,0,0,0],"sum_hessian":[9.72406E3,6.448725E3,3.2753342E3,2.3937046E3,4.0550208E3,2.894553E3,3.8078113E2,9.877617E2,1.4059427E3,2.7782708E3,1.27675E3,1.3791643E3,1.5153888E3,1.9450168E2,7.932601E2,5.257826E2,8.8016016E2,1.9366661E3,8.416047E2,3.3045496E2,9.4629504E2,2.9643558E2,1.0827286E3,2.0980167E2,1.3055872E3,5.05167E1,1.4398497E2,1.6903107E2,6.24229E2,2.6481668E2,2.609659E2,4.5135062E2,4.2880957E2,4.5324194E2,1.4834242E3,3.7010977E2,4.714949E2,3.2379706E2,6.657898E0,4.9219238E2,4.5410266E2,2.0109386E2,9.534173E1,6.6290607E2,4.198226E2,1.7334048E2,3.646118E1,7.002585E2,6.053287E2,3.8202618E1,1.2314083E1,9.022657E1,5.3758404E1,8.180692E0,1.6085037E2,6.170709E2,7.158058E0,2.0132257E1,2.4468442E2,2.3020409E2,3.0761831E1,1.845731E2,2.667775E2,2.466845E2,1.8212506E2,3.2402322E2,1.2921872E2,8.9322345E2,5.9020074E2,3.076813E2,6.242845E1,3.690554E2,1.024395E2,2.2745914E2,9.6337906E1,2.7767642E2,2.1451596E2,3.7495642E2,7.914624E1,1.0542298E2,9.5670876E1,7.80657E0,8.753516E1,2.5973288E2,4.0317316E2,1.735633E2,2.4625932E2,1.5137222E2,2.1968264E1,5.3480988E0,3.1113083E1,3.4508368E2,3.5517477E2,5.3303143E2,7.229722E1],"tree_param":{"num_deleted":"0","num_feature":"38","num_nodes":"95","size_leaf_vector":"1"}},{"base_weights":[-3.4505068E-3,3.317892E-1,-6.620611E-1,7.347986E-1,9.2753045E-2,-5.2361345E-1,-8.6171955E-2,3.2038295E-1,8.2851976E-1,2.3753078E-1,-2.283244E-1,-1.5457456E-1,-8.464965E-1,1.9732672E-1,6.713632E-1,1.0282865E0,6.145538E-1,3.8369092E-1,-9.736241E-2,-1.4113497E-2,-6.0966516E-1,1.928687E-1,-2.5307244E-1,-2.5096942E-2,-9.784134E-1,2.4261384E-1,-7.7562314E-1,7.6704496E-1,-4.148356E-3,1.1319764E0,7.867801E-1,7.288975E-1,1.75097E-1,6.8644047E-1,2.9716372E-1,1.6544472E-1,-3.0612588E-1,3.3768454E-1,-1.3751686E-1,3.061136E-1,-6.3331103E-1,3.952021E-1,-2.3112497E-1,-7.2214715E-2,-5.462367E-1,1.4948665E-1,-8.628455E-1,-7.354005E-1,-1.2646651E0,8.347506E-4,1.8645996E-2,3.2509372E-3,-6.289159E-2,1.4862773E-2,4.7518726E-2,-2.0771043E-2,2.1285782E-2,5.9273124E-2,3.9879233E-2,-1.774111E-2,4.5201365E-2,4.4282623E-2,2.6092598E-2,3.576018E-2,-8.292107E-4,4.0500782E-2,1.9907553E-2,2.3111057E-2,9.619386E-3,2.0034581E-2,-7.3286556E-3,-5.7359453E-2,-1.1221383E-2,-1.9250052E-3,2.798917E-2,2.2267166E-3,-1.9250108E-2,-1.0624588E-2,3.6006387E-2,-5.3116716E-3,-3.381188E-2,7.771292E-3,4.1997373E-2,4.086946E-2,-1.6830524E-2,7.744176E-3,-1.1172949E-2,-1.8434858E-2,-4.068944E-2,-8.20743E-5,2.6607329E-2,1.1219909E-2,-5.2493244E-2,-2.8681109E-2,-4.6638098E-2,-6.653678E-2,-3.7879106E-2],"categories":[],"categories_nodes":[],"categories_segments":[],"categories_sizes":[],"default_left":[0,0,0,0,0,0,0,0,0,0,0,0,0,0,0,0,0,0,0,0,0,0,0,0,0,0,0,0,0,0,0,0,0,0,0,0,0,0,0,0,0,0,0,0,0,0,0,0,0,0,0,0,0,0,0,0,0,0,0,0,0,0,0,0,0,0,0,0,0,0,0,0,0,0,0,0,0,0,0,0,0,0,0,0,0,0,0,0,0,0,0,0,0,0,0,0,0],"id":3,"left_children":[1,3,5,7,9,11,-1,13,15,17,19,21,23,25,27,29,31,33,35,37,39,41,43,45,47,49,51,53,55,57,59,61,63,65,67,69,71,73,75,77,79,81,83,85,87,89,91,93,95,-1,-1,-1,-1,-1,-1,-1,-1,-1,-1,-1,-1,-1,-1,-1,-1,-1,-1,-1,-1,-1,-1,-1,-1,-1,-1,-1,-1,-1,-1,-1,-1,-1,-1,-1,-1,-1,-1,-1,-1,-1,-1,-1,-1,-1,-1,-1,-1],"loss_changes":[2.1429397E3,6.193644E2,4.790558E2,9.233887E1,1.8788744E2,3.4508325E2,0E0,1.8868858E1,8.196619E1,1.364403E2,1.0253694E2,4.649013E1,1.6733142E2,1.4975553E1,7.4820366E0,2.3213745E1,4.7253265E1,5.030551E1,4.662224E1,3.508923E1,1.0200119E1,2.5960888E1,5.5910194E1,3.1926594E1,9.0570435E1,9.350496E0,6.431609E0,7.9588585E0,3.1925085E0,1.0409363E1,4.2051773E1,2.3304535E1,2.0633018E1,1.4530319E1,2.591072E1,2.776722E1,3.1871342E1,1.7626383E1,2.704539E1,3.0641947E0,9.756317E0,2.1413378E1,1.1353708E1,2.261888E1,1.8416351E1,1.0486742E1,8.209629E0,2.1932953E1,1.8159729E1,0E0,0E0,0E0,0E0,0E0,0E0,0E0,0E0,0E0,0E0,0E0,0E0,0E0,0E0,0E0,0E0,0E0,0E0,0E0,0E0,0E0,0E0,0E0,0E0,0E0,0E0,0E0,0E0,0E0,0E0,0E0,0E0,0E0,0E0,0E0,0E0,0E0,0E0,0E0,0E0,0E0,0E0,0E0,0E0,0E0,0E0,0E0,0E0],"parents":[2147483647,0,0,1,1,2,2,3,3,4,4,5,5,7,7,8,8,9,9,10,10,11,11,12,12,13,13,14,14,15,15,16,16,17,17,18,18,19,19,20,20,21,21,22,22,23,23,24,24,25,25,26,26,27,27,28,28,29,29,30,30,31,31,32,32,33,33,34,34,35,35,36,36,37,37,38,38,39,39,40,40,41,41,42,42,43,43,44,44,45,45,46,46,47,47,48,48],"right_children":[2,4,6,8,10,12,-1,14,16,18,20,22,24,26,28,30,32,34,36,38,40,42,44,46,48,50,52,54,56,58,60,62,64,66,68,70,72,74,76,78,80,82,84,86,88,90,92,94,96,-1,-1,-1,-1,-1,-1,-1,-1,-1,-1,-1,-1,-1,-1,-1,-1,-1,-1,-1,-1,-1,-1,-1,-1,-1,-1,-1,-1,-1,-1,-1,-1,-1,-1,-1,-1,-1,-1,-1,-1,-1,-1,-1,-1,-1,-1,-1,-1],"split_conditions":[4E0,4E0,1.65E2,2.0250526E7,4E0,1E1,-8.6171955E-2,4.3388373E-1,3.5384614E0,7E0,9.3E0,1E0,1E0,2.8E1,3E0,5.9E1,4E0,4E0,4E0,5.68E0,7.185185E0,6E0,8.172414E0,1.3E1,1.76E1,1.915E3,1.6E1,3.0833333E0,3.584E3,4.187E3,6.1E1,3.2E0,4.5E0,2.4E1,6.234898E-1,1.2E1,1E0,2E1,4E0,6.65332E0,2.0250532E7,9.000158E0,-8.660254E-1,6.234898E-1,3E0,3.517E3,7.185185E0,7E0,1.58E2,8.347506E-4,1.8645996E-2,3.2509372E-3,-6.289159E-2,1.4862773E-2,4.7518726E-2,-2.0771043E-2,2.1285782E-2,5.9273124E-2,3.9879233E-2,-1.774111E-2,4.5201365E-2,4.4282623E-2,2.6092598E-2,3.576018E-2,-8.292107E-4,4.0500782E-2,1.9907553E-2,2.3111057E-2,9.619386E-3,2.0034581E-2,-7.3286556E-3,-5.7359453E-2,-1.1221383E-2,-1.9250052E-3,2.798917E-2,2.2267166E-3,-1.9250108E-2,-1.0624588E-2,3.6006387E-2,-5.3116716E-3,-3.381188E-2,7.771292E-3,4.1997373E-2,4.086946E-2,-1.6830524E-2,7.744176E-3,-1.1172949E-2,-1.8434858E-2,-4.068944E-2,-8.20743E-5,2.6607329E-2,1.1219909E-2,-5.2493244E-2,-2.8681109E-2,-4.6638098E-2,-6.653678E-2,-3.7879106E-2],"split_indices":[18,20,6,10,15,20,0,36,24,16,24,12,12,2,13,6,15,19,11,28,28,3,28,11,28,9,31,24,8,9,6,20,28,2,37,12,12,31,3,21,10,29,35,37,22,7,28,18,6,0,0,0,0,0,0,0,0,0,0,0,0,0,0,0,0,0,0,0,0,0,0,0,0,0,0,0,0,0,0,0,0,0,0,0,0,0,0,0,0,0,0,0,0,0,0,0,0],"split_type":[0,0,0,0,0,0,0,0,0,0,0,0,0,0,0,0,0,0,0,0,0,0,0,0,0,0,0,0,0,0,0,0,0,0,0,0,0,0,0,0,0,0,0,0,0,0,0,0,0,0,0,0,0,0,0,0,0,0,0,0,0,0,0,0,0,0,0,0,0,0,0,0,0,0,0,0,0,0,0,0,0,0,0,0,0,0,0,0,0,0,0,0,0,0,0,0,0],"sum_hessian":[9.701537E3,6.429629E3,3.271908E3,2.3920767E3,4.037552E3,2.8970886E3,3.748194E2,4.4302316E2,1.9490535E3,2.7833413E3,1.2542108E3,1.3534413E3,1.5436473E3,3.3054205E2,1.1248111E2,1.00379425E3,9.452592E2,1.937674E3,8.4566736E2,8.045861E2,4.4962466E2,2.9829578E2,1.0551455E3,2.1403929E2,1.329608E3,3.173736E2,1.3168472E1,9.84179E1,1.4063213E1,6.968259E2,3.0696832E2,7.488648E2,1.963944E2,4.273609E2,1.510313E3,3.7434714E2,4.7132022E2,2.0782782E2,5.967583E2,1.0609517E1,4.3901514E2,2.0218365E2,9.6112114E1,6.543193E2,4.0082623E2,1.7838773E2,3.5651566E1,7.231654E2,6.0644257E2,1.17200424E2,2.0017317E2,5.3553524E0,7.8131204E0,2.9250538E1,6.916736E1,7.3402534E0,6.72296E0,5.9609155E2,1.0073438E2,2.8133652E1,2.788347E2,4.221873E2,3.2667752E2,5.0148514E1,1.4624588E2,2.9636E2,1.3100093E2,5.834328E2,9.268802E2,2.1328915E2,1.61058E2,3.9311405E1,4.3200882E2,7.7597855E1,1.3022997E2,3.4454538E2,2.5221294E2,5.034781E0,5.5747366E0,3.376065E1,4.052545E2,1.3326181E2,6.892186E1,7.4650197E0,8.8647095E1,2.612838E2,3.930355E2,2.4402701E2,1.5679922E2,1.2912216E2,4.926556E1,5.095319E0,3.0556246E1,4.019798E2,3.2118564E2,5.3348615E2,7.2956406E1],"tree_param":{"num_deleted":"0","num_feature":"38","num_nodes":"97","size_leaf_vector":"1"}},{"base_weights":[-7.960652E-4,3.1560314E-1,-6.209501E-1,6.6783476E-1,6.439075E-2,-4.8637596E-1,-8.30647E-2,9.348893E-1,5.41994E-1,2.0732455E-1,-2.4067113E-1,-2.4849002E-1,-9.475038E-1,3.6136916E-1,1.0710232E0,7.024002E-1,4.1851306E-1,3.9308202E-1,-1.7176738E-2,1.459839E-1,-4.3277085E-1,-3.27906E-2,-5.12437E-1,-6.097893E-1,-1.2393909E0,1.5980583E-1,7.117382E-1,1.1677296E0,8.7552017E-1,1.8033539E-1,7.9964757E-1,5.354896E-1,5.59846E-2,6.550349E-1,2.8469655E-1,1.361621E-1,-2.693055E-1,3.0967185E-1,-1.8849668E-1,-2.8372374E-1,-6.6984993E-1,2.3324706E-1,-2.054881E-1,-2.16869E-1,-6.7541265E-1,4.130266E-2,-6.849E-1,-1.3112805E0,-6.9505477E-1,1.9418523E-2,-1.2446258E-2,4.390644E-2,9.266869E-3,6.670801E-2,5.4024138E-2,4.5130037E-2,-4.930761E-4,2.7837226E-2,-3.4056518E-3,4.510362E-2,2.919514E-2,2.0740008E-2,4.042922E-2,1.9163858E-2,-7.133948E-3,3.7707217E-2,1.5078396E-2,9.3191856E-4,1.7044974E-2,3.2616384E-2,4.103107E-3,-5.8540585E-3,-3.661123E-2,2.3559313E-2,1.4293649E-3,-2.562263E-3,-4.5844417E-2,-5.4571636E-2,-1.1502179E-2,-0E0,-3.7487704E-2,2.4209363E-2,-1.1730691E-3,-2.5813095E-4,-2.0832889E-2,-2.0341353E-2,5.297535E-3,-1.54746575E-2,-3.775299E-2,1.8088222E-2,-2.5044844E-2,-1.8941099E-2,-4.0516697E-2,-5.6983717E-2,-8.009102E-2,-4.2575624E-2,1.1168256E-2],"categories":[],"categories_nodes":[],"categories_segments":[],"categories_sizes":[],"default_left":[0,0,0,0,0,0,0,0,0,0,0,0,0,0,0,0,0,0,0,0,0,0,0,0,0,0,0,0,0,0,0,0,0,0,0,0,0,0,0,0,0,0,0,0,0,0,0,0,0,0,0,0,0,0,0,0,0,0,0,0,0,0,0,0,0,0,0,0,0,0,0,0,0,0,0,0,0,0,0,0,0,0,0,0,0,0,0,0,0,0,0,0,0,0,0,0,0],"id":4,"left_children":[1,3,5,7,9,11,-1,13,15,17,19,21,23,25,27,29,31,33,35,37,39,41,43,45,47,49,51,53,55,57,59,61,63,65,67,69,71,73,75,77,79,81,83,85,87,89,91,93,95,-1,-1,-1,-1,-1,-1,-1,-1,-1,-1,-1,-1,-1,-1,-1,-1,-1,-1,-1,-1,-1,-1,-1,-1,-1,-1,-1,-1,-1,-1,-1,-1,-1,-1,-1,-1,-1,-1,-1,-1,-1,-1,-1,-1,-1,-1,-1,-1],"loss_changes":[1.9051562E3,5.6871765E2,4.5741394E2,8.877063E1,1.6383022E2,3.1834314E2,0E0,6.57666E1,3.542682E1,1.0673896E2,8.9194275E1,1.0927159E2,9.575372E1,1.1479284E1,1.0779175E1,3.9723846E1,4.381018E1,3.9289413E1,4.493428E1,2.1985943E1,2.7847855E1,4.876504E1,4.1211365E1,2.2734833E1,1.8645386E1,1.0369086E1,4.8434143E0,3.4780884E0,5.774887E0,1.1982899E1,1.3498322E1,2.5005676E1,1.6723566E1,1.3732758E1,1.4818871E1,1.999238E1,3.0721952E1,1.2135342E1,1.3027184E1,2.086567E1,1.6412186E1,2.6976778E1,2.7182415E1,1.912971E1,1.5613281E1,8.9625E0,1.5193832E1,1.9216248E1,9.932228E0,0E0,0E0,0E0,0E0,0E0,0E0,0E0,0E0,0E0,0E0,0E0,0E0,0E0,0E0,0E0,0E0,0E0,0E0,0E0,0E0,0E0,0E0,0E0,0E0,0E0,0E0,0E0,0E0,0E0,0E0,0E0,0E0,0E0,0E0,0E0,0E0,0E0,0E0,0E0,0E0,0E0,0E0,0E0,0E0,0E0,0E0,0E0,0E0],"parents":[2147483647,0,0,1,1,2,2,3,3,4,4,5,5,7,7,8,8,9,9,10,10,11,11,12,12,13,13,14,14,15,15,16,16,17,17,18,18,19,19,20,20,21,21,22,22,23,23,24,24,25,25,26,26,27,27,28,28,29,29,30,30,31,31,32,32,33,33,34,34,35,35,36,36,37,37,38,38,39,39,40,40,41,41,42,42,43,43,44,44,45,45,46,46,47,47,48,48],"right_children":[2,4,6,8,10,12,-1,14,16,18,20,22,24,26,28,30,32,34,36,38,40,42,44,46,48,50,52,54,56,58,60,62,64,66,68,70,72,74,76,78,80,82,84,86,88,90,92,94,96,-1,-1,-1,-1,-1,-1,-1,-1,-1,-1,-1,-1,-1,-1,-1,-1,-1,-1,-1,-1,-1,-1,-1,-1,-1,-1,-1,-1,-1,-1,-1,-1,-1,-1,-1,-1,-1,-1,-1,-1,-1,-1,-1,-1,-1,-1,-1,-1],"split_conditions":[4E0,4.285714E0,1.65E2,2.5E0,4E0,1.2E1,-8.30647E-2,1E0,3.7272727E0,5.6666665E0,7.0333333E0,7E0,1.6714285E1,4.3388373E-1,2.1666667E0,2.0250514E7,3E0,2.6666667E0,9.214286E0,2E0,1.1181818E1,1E0,7.76E0,5.0076866E0,1.58E2,2.4E1,3.503E3,2.1538463E0,3.1E1,4E0,5.9E1,3.536E3,5.034483E0,2E0,2.0250514E7,-2.2252093E-1,1.8E1,4E0,4.137E3,5.6385374E0,3.07E2,5.9E1,7.714286E0,1E0,7.6E0,7.142857E0,6E0,5.9E1,6.229924E1,1.9418523E-2,-1.2446258E-2,4.390644E-2,9.266869E-3,6.670801E-2,5.4024138E-2,4.5130037E-2,-4.930761E-4,2.7837226E-2,-3.4056518E-3,4.510362E-2,2.919514E-2,2.0740008E-2,4.042922E-2,1.9163858E-2,-7.133948E-3,3.7707217E-2,1.5078396E-2,9.3191856E-4,1.7044974E-2,3.2616384E-2,4.103107E-3,-5.8540585E-3,-3.661123E-2,2.3559313E-2,1.4293649E-3,-2.562263E-3,-4.5844417E-2,-5.4571636E-2,-1.1502179E-2,-0E0,-3.7487704E-2,2.4209363E-2,-1.1730691E-3,-2.5813095E-4,-2.0832889E-2,-2.0341353E-2,5.297535E-3,-1.54746575E-2,-3.775299E-2,1.8088222E-2,-2.5044844E-2,-1.8941099E-2,-4.0516697E-2,-5.6983717E-2,-8.009102E-2,-4.2575624E-2,1.1168256E-2],"split_indices":[18,20,6,20,15,12,0,12,24,16,28,11,24,36,20,10,15,16,24,26,24,12,28,25,6,2,7,24,2,3,6,9,28,14,10,37,11,3,9,29,5,6,28,15,20,24,11,6,29,0,0,0,0,0,0,0,0,0,0,0,0,0,0,0,0,0,0,0,0,0,0,0,0,0,0,0,0,0,0,0,0,0,0,0,0,0,0,0,0,0,0,0,0,0,0,0,0],"split_type":[0,0,0,0,0,0,0,0,0,0,0,0,0,0,0,0,0,0,0,0,0,0,0,0,0,0,0,0,0,0,0,0,0,0,0,0,0,0,0,0,0,0,0,0,0,0,0,0,0,0,0,0,0,0,0,0,0,0,0,0,0,0,0,0,0,0,0,0,0,0,0,0,0,0,0,0,0,0,0,0,0,0,0,0,0,0,0,0,0,0,0,0,0,0,0,0,0],"sum_hessian":[9.705318E3,6.427079E3,3.2782395E3,2.674032E3,3.7530469E3,2.9054365E3,3.72803E2,8.520952E2,1.8219368E3,2.5562903E3,1.1967566E3,1.9188419E3,9.865946E2,1.6500168E2,6.8709357E2,7.880475E2,1.0338893E3,1.3982719E3,1.1580184E3,3.9721292E2,7.9954376E2,1.0573748E3,8.614671E2,4.6041428E2,5.2618036E2,1.0677364E2,5.8228035E1,4.5270425E2,2.3438931E2,1.24800835E2,6.6324664E2,7.8073926E2,2.5315002E2,4.0600455E2,9.9226733E2,7.204069E2,4.3761145E2,2.6699725E2,1.3021567E2,4.9387143E2,3.056723E2,4.1570612E2,6.416687E2,3.080576E2,5.5340955E2,4.7575764E1,4.128385E2,4.62144E2,6.403635E1,6.870033E1,3.8073315E1,4.308343E1,1.5144603E1,1.4547307E2,3.0723117E2,2.2750484E2,6.8844805E0,4.8795086E1,7.600575E1,4.4510632E2,2.1814029E2,5.452012E2,2.3553812E2,9.5107666E1,1.5804236E2,3.1510226E2,9.090227E1,1.7382805E2,8.1843933E2,6.607016E1,6.543368E2,3.3136777E2,1.0624369E2,1.6847893E2,9.851832E1,1.1148623E2,1.872944E1,2.8251581E1,4.6561984E2,3.28887E1,2.727836E2,2.0951561E2,2.061905E2,3.3058377E2,3.110849E2,1.9380528E2,1.1425229E2,1.008957E2,4.5251382E2,3.0436543E1,1.7139221E1,1.2257472E2,2.902638E2,2.969444E2,1.6519962E2,5.493283E1,9.103517E0],"tree_param":{"num_deleted":"0","num_feature":"38","num_nodes":"97","size_leaf_vector":"1"}},{"base_weights":[-1.9163317E-4,3.033397E-1,-5.939428E-1,5.94352E-1,1.7177062E-2,-4.6515328E-1,-8.029715E-2,7.921682E-1,3.9959764E-1,1.6466571E-1,-2.8310713E-1,-1.399602E-1,-7.546947E-1,1.6746412E-1,8.669507E-1,4.7564957E-1,1.093871E-1,2.831327E-1,-1.6577709E-1,-1.1263838E-1,-6.0777116E-1,1.9300424E-1,-2.3412786E-1,2.8052786E-2,-8.829981E-1,4.464961E-1,-1.0185826E-1,1.028297E0,7.388353E-1,2.0067894E-1,5.369207E-1,7.5036263E-1,-9.117799E-3,6.1076015E-1,1.9950853E-1,-9.514361E-2,-8.133332E-1,1.11959815E-1,-2.8553653E-1,1.7120618E-1,-6.5471756E-1,3.7788683E-1,-1.8691608E-1,-2.7812013E-2,-3.662234E-1,1.8232018E-1,-7.190399E-1,-7.2841096E-1,-1.1832752E0,3.6657035E-2,5.4119565E-3,-3.992706E-2,4.8801797E-3,2.835432E-2,5.3579476E-2,2.0073414E-2,4.0337306E-2,1.3676408E-2,-1.676415E-2,4.22324E-2,2.350322E-2,1.9776803E-2,5.926791E-2,1.8304217E-3,-4.6584915E-2,3.7223108E-2,1.3133751E-2,1.3803521E-2,-3.125234E-3,-2.2404462E-2,-4.127845E-4,-4.256736E-3,-5.3285766E-2,1.6698446E-3,3.8824122E-2,-5.2012755E-3,-2.5792766E-2,-2.8856082E-2,3.577486E-2,-3.7677698E-2,-9.115762E-3,-9.030639E-3,2.733033E-2,-1.949359E-2,1.4031062E-2,1.4052621E-2,-9.826911E-3,-1.1966195E-2,-3.1232743E-2,2.3023726E-2,1.0723069E-3,3.6687262E-3,-4.635112E-2,-3.0060811E-2,-4.487606E-2,-6.2717415E-2,-2.4956377E-2],"categories":[],"categories_nodes":[],"categories_segments":[],"categories_sizes":[],"default_left":[0,0,0,0,0,0,0,0,0,0,0,0,0,0,0,0,0,0,0,0,0,0,0,0,0,0,0,0,0,0,0,0,0,0,0,0,0,0,0,0,0,0,0,0,0,0,0,0,0,0,0,0,0,0,0,0,0,0,0,0,0,0,0,0,0,0,0,0,0,0,0,0,0,0,0,0,0,0,0,0,0,0,0,0,0,0,0,0,0,0,0,0,0,0,0,0,0],"id":5,"left_children":[1,3,5,7,9,11,-1,13,15,17,19,21,23,25,27,29,31,33,35,37,39,41,43,45,47,49,51,53,55,57,59,61,63,65,67,69,71,73,75,77,79,81,83,85,87,89,91,93,95,-1,-1,-1,-1,-1,-1,-1,-1,-1,-1,-1,-1,-1,-1,-1,-1,-1,-1,-1,-1,-1,-1,-1,-1,-1,-1,-1,-1,-1,-1,-1,-1,-1,-1,-1,-1,-1,-1,-1,-1,-1,-1,-1,-1,-1,-1,-1,-1],"loss_changes":[1.7470919E3,5.3410455E2,4.2571484E2,1.2176318E2,1.4341994E2,2.7388812E2,0E0,7.320239E1,3.530005E1,8.512891E1,5.881935E1,4.318172E1,1.5478046E2,1.2979354E1,2.7373657E1,2.1145233E1,2.5647951E1,4.350357E1,2.6018135E1,2.7342014E1,1.3677155E1,2.1501194E1,2.9166027E1,2.5412441E1,5.950476E1,7.956234E0,1.2521691E1,1.09401245E1,1.7361572E1,9.365337E0,2.044873E1,7.032362E0,1.2216171E1,1.4590469E1,2.5685627E1,1.5897912E1,1.0008007E1,1.5870376E1,1.6447113E1,9.922313E0,1.5798019E1,1.9570923E1,9.777028E0,2.2044413E1,2.1040222E1,8.119286E0,6.438217E0,1.7676025E1,2.0271484E1,0E0,0E0,0E0,0E0,0E0,0E0,0E0,0E0,0E0,0E0,0E0,0E0,0E0,0E0,0E0,0E0,0E0,0E0,0E0,0E0,0E0,0E0,0E0,0E0,0E0,0E0,0E0,0E0,0E0,0E0,0E0,0E0,0E0,0E0,0E0,0E0,0E0,0E0,0E0,0E0,0E0,0E0,0E0,0E0,0E0,0E0,0E0,0E0],"parents":[2147483647,0,0,1,1,2,2,3,3,4,4,5,5,7,7,8,8,9,9,10,10,11,11,12,12,13,13,14,14,15,15,16,16,17,17,18,18,19,19,20,20,21,21,22,22,23,23,24,24,25,25,26,26,27,27,28,28,29,29,30,30,31,31,32,32,33,33,34,34,35,35,36,36,37,37,38,38,39,39,40,40,41,41,42,42,43,43,44,44,45,45,46,46,47,47,48,48],"right_children":[2,4,6,8,10,12,-1,14,16,18,20,22,24,26,28,30,32,34,36,38,40,42,44,46,48,50,52,54,56,58,60,62,64,66,68,70,72,74,76,78,80,82,84,86,88,90,92,94,96,-1,-1,-1,-1,-1,-1,-1,-1,-1,-1,-1,-1,-1,-1,-1,-1,-1,-1,-1,-1,-1,-1,-1,-1,-1,-1,-1,-1,-1,-1,-1,-1,-1,-1,-1,-1,-1,-1,-1,-1,-1,-1,-1,-1,-1,-1,-1,-1],"split_conditions":[4E0,4.8333335E0,1.65E2,3.1666667E0,4E0,1E1,-8.029715E-2,1E0,4E0,8.666667E0,1.0076923E1,1E0,1E0,5.9E1,2.3333333E0,2.0250516E7,3.8E0,2.6666667E0,5E1,2E0,1.33E2,6E0,6.234898E-1,1.3E1,2.7714285E1,4E0,6.1E1,1E0,6E0,6E0,2.3333333E0,3.1471832E0,1.05E2,2.4E1,2.6E1,2.0250514E7,1.305E3,3E1,4E0,1.05E1,1.58E2,2.0250506E7,3.464E3,5.556239E0,7.714286E0,3E0,1.235E3,1.7333334E1,1.58E2,3.6657035E-2,5.4119565E-3,-3.992706E-2,4.8801797E-3,2.835432E-2,5.3579476E-2,2.0073414E-2,4.0337306E-2,1.3676408E-2,-1.676415E-2,4.22324E-2,2.350322E-2,1.9776803E-2,5.926791E-2,1.8304217E-3,-4.6584915E-2,3.7223108E-2,1.3133751E-2,1.3803521E-2,-3.125234E-3,-2.2404462E-2,-4.127845E-4,-4.256736E-3,-5.3285766E-2,1.6698446E-3,3.8824122E-2,-5.2012755E-3,-2.5792766E-2,-2.8856082E-2,3.577486E-2,-3.7677698E-2,-9.115762E-3,-9.030639E-3,2.733033E-2,-1.949359E-2,1.4031062E-2,1.4052621E-2,-9.826911E-3,-1.1966195E-2,-3.1232743E-2,2.3023726E-2,1.0723069E-3,3.6687262E-3,-4.635112E-2,-3.0060811E-2,-4.487606E-2,-6.2717415E-2,-2.4956377E-2],"split_indices":[18,20,6,20,15,20,0,11,15,16,24,12,12,6,20,10,24,16,11,22,5,3,37,11,20,3,6,12,1,11,16,21,31,2,2,10,7,19,3,16,6,10,9,29,20,22,8,16,6,0,0,0,0,0,0,0,0,0,0,0,0,0,0,0,0,0,0,0,0,0,0,0,0,0,0,0,0,0,0,0,0,0,0,0,0,0,0,0,0,0,0,0,0,0,0,0,0],"split_type":[0,0,0,0,0,0,0,0,0,0,0,0,0,0,0,0,0,0,0,0,0,0,0,0,0,0,0,0,0,0,0,0,0,0,0,0,0,0,0,0,0,0,0,0,0,0,0,0,0,0,0,0,0,0,0,0,0,0,0,0,0,0,0,0,0,0,0,0,0,0,0,0,0,0,0,0,0,0,0,0,0,0,0,0,0,0,0,0,0,0,0,0,0,0,0,0,0],"sum_hessian":[9.689944E3,6.412581E3,3.2773633E3,3.1781086E3,3.2344724E3,2.9100422E3,3.6732092E2,1.5733622E3,1.6047465E3,2.169922E3,1.0645503E3,1.372197E3,1.5378453E3,1.6904466E2,1.4043175E3,1.2702461E3,3.3450037E2,1.5977146E3,5.722074E2,7.000058E2,3.6454456E2,3.0182443E2,1.0703726E3,2.1668524E2,1.32116E3,8.256188E1,8.648279E1,6.149845E2,7.8933307E2,2.3332425E2,1.0369219E3,5.0661232E1,2.838391E2,3.2207358E2,1.2756411E3,5.181387E2,5.4068726E1,3.0453506E2,3.954707E2,2.0299133E1,3.4424542E2,2.0320947E2,9.861497E1,4.1904987E2,6.513227E2,1.8096376E2,3.572149E1,8.769024E2,4.442577E2,4.3266594E1,3.9295284E1,1.8023714E1,6.8459076E1,5.5391132E1,5.595933E2,1.3482854E2,6.545045E2,2.0643147E2,2.689277E1,1.8065187E2,8.5626996E2,3.0131435E1,2.0529799E1,2.7216208E2,1.1677033E1,2.308411E2,9.123248E1,9.8739307E2,2.8824796E2,1.0048708E2,4.176516E2,1.4706609E1,3.9362118E1,2.7435104E2,3.0184044E1,2.2303638E2,1.7243433E2,8.419323E0,1.1879811E1,2.835243E2,6.0721134E1,4.697574E1,1.5623373E2,6.91454E1,2.9469568E1,1.4736478E2,2.716851E2,4.3966827E2,2.1165442E2,6.47183E1,1.1624546E2,7.595644E0,2.8125843E1,5.060118E2,3.708906E2,4.0080667E2,4.3451027E1],"tree_param":{"num_deleted":"0","num_feature":"38","num_nodes":"97","size_leaf_vector":"1"}},{"base_weights":[-2.7304732E-3,4.036692E-1,-3.8104242E-1,7.033289E-1,2.3696348E-1,-1.7745127E-1,-9.3260294E-1,1.5538676E-1,7.738888E-1,3.856288E-1,-2.0424576E-1,1.06938435E-2,-4.3129775E-1,-6.843601E-2,-1.065084E0,-2.1523379E-2,5.1274115E-1,9.6693027E-1,5.846636E-1,6.345724E-1,2.5474077E-1,-1.1676958E-1,-7.390462E-2,1.3948302E-1,-1.5371549E-1,-1.6392347E-1,-6.141297E-1,9.9278554E-2,-1.0621086E0,-9.0777194E-1,-7.879751E-2,-1.5350576E-1,3.6506054E-1,-8.445232E-2,6.7586195E-1,1.2257025E0,8.9056534E-1,3.8859314E-1,7.2221476E-1,7.631868E-1,4.2843547E-1,2.863326E-1,-3.9130515E-1,2.8057927E-1,-2.6820213E-1,3.6067307E-1,5.873765E-2,6.356113E-3,-3.475099E-1,1.3755721E-1,-4.4777942E-1,-4.6203667E-1,-8.4495515E-1,3.8547543E-1,-1.5281336E-1,-4.5737025E-1,-7.075728E-2,-5.486834E-1,-1.1551101E0,1.2365315E-2,-1.6764333E-2,-2.539328E-3,4.2124327E-2,-2.9616484E-2,1.7919213E-2,4.7298275E-2,1.25721395E-2,2.0577004E-2,6.286784E-2,5.324031E-2,3.8084965E-2,2.6990985E-2,9.617369E-3,4.2528983E-2,2.2480754E-2,4.3677192E-2,2.1893801E-2,-4.768496E-2,3.1930562E-2,8.979874E-3,2.2438487E-2,-4.2116564E-2,6.600234E-3,4.412677E-2,1.0115126E-2,-8.77158E-3,-2.9842928E-2,4.951536E-3,2.4172468E-2,1.8000582E-2,-3.442717E-3,1.4676993E-3,-5.240954E-2,-1.880136E-3,-2.6665902E-2,1.9163664E-2,-4.585616E-3,-1.6031507E-2,-4.522225E-2,-1.5473068E-2,-3.186942E-2,6.1304723E-3,-4.4142228E-2,3.733972E-2,5.2275956E-3,-5.221547E-2,5.192607E-3,-5.0219536E-2,7.233567E-3,-3.1628277E-2,-3.6471821E-3,-6.0067963E-2,-3.8892444E-2],"categories":[],"categories_nodes":[],"categories_segments":[],"categories_sizes":[],"default_left":[0,0,0,0,0,0,0,0,0,0,0,0,0,0,0,0,0,0,0,0,0,0,0,0,0,0,0,0,0,0,0,0,0,0,0,0,0,0,0,0,0,0,0,0,0,0,0,0,0,0,0,0,0,0,0,0,0,0,0,0,0,0,0,0,0,0,0,0,0,0,0,0,0,0,0,0,0,0,0,0,0,0,0,0,0,0,0,0,0,0,0,0,0,0,0,0,0,0,0,0,0,0,0,0,0,0,0,0,0,0,0,0,0],"id":6,"left_children":[1,3,5,7,9,11,13,15,17,19,21,23,25,27,29,31,33,35,37,39,41,43,-1,45,47,49,51,53,55,57,-1,59,61,63,65,67,69,71,73,75,77,79,81,83,85,87,89,91,93,95,97,99,101,103,105,107,-1,109,111,-1,-1,-1,-1,-1,-1,-1,-1,-1,-1,-1,-1,-1,-1,-1,-1,-1,-1,-1,-1,-1,-1,-1,-1,-1,-1,-1,-1,-1,-1,-1,-1,-1,-1,-1,-1,-1,-1,-1,-1,-1,-1,-1,-1,-1,-1,-1,-1,-1,-1,-1,-1,-1,-1],"loss_changes":[1.4798694E3,2.313805E2,5.5934985E2,6.3749695E1,1.9595905E2,1.7407474E2,1.5354065E2,1.21938E1,5.2328186E1,7.236157E1,8.3448074E1,4.4388493E1,7.555615E1,3.0439907E1,9.048291E1,6.7233567E0,6.384739E0,1.1896851E1,1.9460953E1,1.9588959E1,3.0163162E1,4.27048E1,0E0,2.0915735E1,2.8596016E1,5.43202E1,3.1399658E1,1.142812E1,4.1476383E0,7.807654E1,0E0,7.3518715E0,6.8124766E0,3.8949378E0,5.1864567E0,2.9005737E0,1.0904938E1,8.990845E0,1.4365234E1,1.5980072E1,8.8316925E1,2.4054085E1,1.6604984E1,8.767557E0,1.5363201E1,9.923832E0,3.3294357E1,1.2227446E1,2.3900433E1,1.7467873E1,1.8264053E1,1.4479202E1,1.3596161E1,7.2718697E0,1.9628529E1,4.5849676E0,0E0,1.4567322E1,7.1481934E0,0E0,0E0,0E0,0E0,0E0,0E0,0E0,0E0,0E0,0E0,0E0,0E0,0E0,0E0,0E0,0E0,0E0,0E0,0E0,0E0,0E0,0E0,0E0,0E0,0E0,0E0,0E0,0E0,0E0,0E0,0E0,0E0,0E0,0E0,0E0,0E0,0E0,0E0,0E0,0E0,0E0,0E0,0E0,0E0,0E0,0E0,0E0,0E0,0E0,0E0,0E0,0E0,0E0,0E0],"parents":[2147483647,0,0,1,1,2,2,3,3,4,4,5,5,6,6,7,7,8,8,9,9,10,10,11,11,12,12,13,13,14,14,15,15,16,16,17,17,18,18,19,19,20,20,21,21,23,23,24,24,25,25,26,26,27,27,28,28,29,29,31,31,32,32,33,33,34,34,35,35,36,36,37,37,38,38,39,39,40,40,41,41,42,42,43,43,44,44,45,45,46,46,47,47,48,48,49,49,50,50,51,51,52,52,53,53,54,54,55,55,57,57,58,58],"right_children":[2,4,6,8,10,12,14,16,18,20,22,24,26,28,30,32,34,36,38,40,42,44,-1,46,48,50,52,54,56,58,-1,60,62,64,66,68,70,72,74,76,78,80,82,84,86,88,90,92,94,96,98,100,102,104,106,108,-1,110,112,-1,-1,-1,-1,-1,-1,-1,-1,-1,-1,-1,-1,-1,-1,-1,-1,-1,-1,-1,-1,-1,-1,-1,-1,-1,-1,-1,-1,-1,-1,-1,-1,-1,-1,-1,-1,-1,-1,-1,-1,-1,-1,-1,-1,-1,-1,-1,-1,-1,-1,-1,-1,-1,-1],"split_conditions":[5.3333335E0,3.9285715E0,4E0,1E0,4E0,9.071428E0,1E0,4.3388373E-1,2.5E0,2.6666667E0,1.65E2,8E0,6E0,1.6E1,1.65E2,3.638E3,4E0,2.1538463E0,1E0,5.9E1,4E0,5.62069E0,-7.390462E-2,3E0,9E0,3E0,1.1E1,5.9E1,1.731E3,1.4076923E1,-7.879751E-2,1.0327955E0,4.5E0,3.9339373E0,6E0,6E0,2.092E3,1.8E1,3.5E0,2E0,6.1E1,4.3388373E-1,4.5E0,1.91E2,6E0,1.967E3,5.214286E0,1.65E2,6.234898E-1,3E0,2.5E1,1.157E3,1.62E2,2.1E1,6.1E1,6E0,-7.075728E-2,1.58E2,1.58E2,1.2365315E-2,-1.6764333E-2,-2.539328E-3,4.2124327E-2,-2.9616484E-2,1.7919213E-2,4.7298275E-2,1.25721395E-2,2.0577004E-2,6.286784E-2,5.324031E-2,3.8084965E-2,2.6990985E-2,9.617369E-3,4.2528983E-2,2.2480754E-2,4.3677192E-2,2.1893801E-2,-4.768496E-2,3.1930562E-2,8.979874E-3,2.2438487E-2,-4.2116564E-2,6.600234E-3,4.412677E-2,1.0115126E-2,-8.77158E-3,-2.9842928E-2,4.951536E-3,2.4172468E-2,1.8000582E-2,-3.442717E-3,1.4676993E-3,-5.240954E-2,-1.880136E-3,-2.6665902E-2,1.9163664E-2,-4.585616E-3,-1.6031507E-2,-4.522225E-2,-1.5473068E-2,-3.186942E-2,6.1304723E-3,-4.4142228E-2,3.733972E-2,5.2275956E-3,-5.221547E-2,5.192607E-3,-5.0219536E-2,7.233567E-3,-3.1628277E-2,-3.6471821E-3,-6.0067963E-2,-3.8892444E-2],"split_indices":[16,24,22,11,15,24,13,36,16,16,6,11,11,11,6,7,23,24,14,6,22,28,0,12,16,14,12,6,9,24,0,21,28,29,23,1,7,2,24,14,6,36,16,5,3,9,24,6,37,12,12,5,5,23,6,1,0,6,6,0,0,0,0,0,0,0,0,0,0,0,0,0,0,0,0,0,0,0,0,0,0,0,0,0,0,0,0,0,0,0,0,0,0,0,0,0,0,0,0,0,0,0,0,0,0,0,0,0,0,0,0,0,0],"split_type":[0,0,0,0,0,0,0,0,0,0,0,0,0,0,0,0,0,0,0,0,0,0,0,0,0,0,0,0,0,0,0,0,0,0,0,0,0,0,0,0,0,0,0,0,0,0,0,0,0,0,0,0,0,0,0,0,0,0,0,0,0,0,0,0,0,0,0,0,0,0,0,0,0,0,0,0,0,0,0,0,0,0,0,0,0,0,0,0,0,0,0,0,0,0,0,0,0,0,0,0,0,0,0,0,0,0,0,0,0,0,0,0,0],"sum_hessian":[9.62144E3,4.638335E3,4.983106E3,1.6554908E3,2.982844E3,3.641709E3,1.341397E3,1.897539E2,1.4657369E3,2.2314397E3,7.514042E2,2.0923958E3,1.5493132E3,1.7881084E2,1.1625862E3,1.27991005E2,6.17629E1,7.212215E2,7.4451544E2,7.6602716E2,1.4654125E3,7.052368E2,4.6167404E1,1.1738096E3,9.185861E2,6.309497E2,9.183635E2,1.5444308E2,2.436775E1,8.932696E2,2.6931656E2,9.650727E1,3.1483728E1,1.3326268E1,4.8436634E1,1.5718143E2,5.640401E2,3.1041522E2,4.3410022E2,4.6808582E2,2.9794135E2,1.3983035E3,6.7109085E1,1.9395247E2,5.1128433E2,3.1172177E2,8.620878E2,5.0383963E2,4.1474646E2,3.0630478E2,3.246449E2,5.574748E2,3.6088876E2,7.201912E1,8.2423965E1,1.0778655E1,1.3589096E1,3.671206E2,5.2614905E2,2.9715649E1,6.6791626E1,1.767033E1,1.3813399E1,5.9979906E0,7.328278E0,2.7953505E1,2.0483128E1,7.048625E0,1.501328E2,2.3329636E2,3.307437E2,1.7305128E2,1.3736395E2,2.9199493E2,1.4210529E2,3.467709E2,1.2131492E2,3.8329845E1,2.5961148E2,8.4674567E2,5.515578E2,3.549166E1,3.1617426E1,1.9807121E1,1.7414536E2,4.0136267E2,1.09921646E2,1.0097235E2,2.1074942E2,2.556292E2,6.064587E2,4.9508188E2,8.757737E0,1.5656183E2,2.5818463E2,1.4741151E2,1.5889326E2,2.5677444E2,6.7870445E1,3.0135904E2,2.5611572E2,1.3331699E1,3.4755707E2,2.9895443E1,4.2123676E1,1.7140533E1,6.528343E1,5.0341063E0,5.744549E0,3.1135345E2,5.5767124E1,4.6456345E2,6.1585594E1],"tree_param":{"num_deleted":"0","num_feature":"38","num_nodes":"113","size_leaf_vector":"1"}},{"base_weights":[1.3622966E-3,2.7394414E-1,-5.395613E-1,6.157365E-1,7.457495E-2,-4.218135E-1,-7.554916E-2,2.1660765E-1,6.822894E-1,2.555482E-1,-1.06792614E-1,-1.06565006E-1,-6.787381E-1,-2.0769092E-1,2.8789845E-1,8.7867546E-1,5.221131E-1,3.630515E-1,-1.1297603E-1,3.7437018E-2,-4.9050578E-1,9.996755E-2,-4.3776637E-1,-4.6069768E-1,-1.0547101E0,-4.942742E-2,1.7058823E-2,5.2083004E-2,2.4626543E-1,5.341218E-1,9.5515436E-1,5.9758437E-1,2.110333E-1,6.2493324E-1,2.7757752E-1,-6.645629E-1,3.099531E-2,3.5133198E-1,-5.1608216E-2,2.2379947E-1,-5.3386754E-1,2.1862513E-1,-1.6632982E-1,-8.8284664E-2,-7.6753044E-1,-2.7008724E-1,-6.255577E-1,-3.8512745E-1,-1.1267596E0,-3.667677E-2,1.1415111E-2,-4.1639622E-2,1.5494935E-2,3.238916E-2,3.7639316E-3,5.0014365E-2,2.9038211E-2,4.1277744E-2,2.6578879E-2,3.0669069E-2,1.5514552E-3,3.7100922E-2,1.8321548E-2,3.5248734E-2,1.1675492E-2,-1.2318495E-2,-5.8116075E-2,1.6374042E-2,-8.2992455E-3,4.4480167E-2,1.4599542E-2,5.3652795E-3,-8.234526E-3,-2.1559637E-2,4.4720985E-2,-2.0554787E-2,-4.654089E-2,-4.8328093E-3,1.42601775E-2,2.5763858E-2,-1.0810386E-2,2.785859E-2,-8.279373E-3,-2.2083836E-2,-4.802066E-2,-2.598174E-3,-2.0365672E-2,-3.9779317E-2,-2.0951621E-2,2.937916E-2,-3.207787E-2,-5.908973E-2,-3.5364483E-2],"categories":[],"categories_nodes":[],"categories_segments":[],"categories_sizes":[],"default_left":[0,0,0,0,0,0,0,0,0,0,0,0,0,0,0,0,0,0,0,0,0,0,0,0,0,0,0,0,0,0,0,0,0,0,0,0,0,0,0,0,0,0,0,0,0,0,0,0,0,0,0,0,0,0,0,0,0,0,0,0,0,0,0,0,0,0,0,0,0,0,0,0,0,0,0,0,0,0,0,0,0,0,0,0,0,0,0,0,0,0,0,0,0],"id":7,"left_children":[1,3,5,7,9,11,-1,13,15,17,19,21,23,25,27,29,31,33,35,37,39,41,43,45,47,-1,49,-1,51,53,55,57,59,61,63,65,67,69,71,73,75,77,79,81,83,85,87,89,91,-1,-1,-1,-1,-1,-1,-1,-1,-1,-1,-1,-1,-1,-1,-1,-1,-1,-1,-1,-1,-1,-1,-1,-1,-1,-1,-1,-1,-1,-1,-1,-1,-1,-1,-1,-1,-1,-1,-1,-1,-1,-1,-1,-1],"loss_changes":[1.4170962E3,4.353293E2,3.6687738E2,6.2143982E1,1.326354E2,2.32639E2,0E0,1.0398978E1,6.2371826E1,8.0233185E1,1.11783936E2,8.860338E1,1.286867E2,8.871829E0,8.513941E0,2.2615662E1,2.5863312E1,3.4625854E1,3.6480545E1,4.1115746E1,1.735904E1,2.529808E1,5.7099503E1,3.1184128E1,2.6938904E1,0E0,6.7126265E0,0E0,1.9637062E1,8.629971E0,1.1114563E1,1.2478302E1,1.5918018E1,1.0954651E1,2.1893066E1,1.907106E1,2.1442497E1,9.745125E0,2.0627478E1,1.5248459E1,2.4485138E1,1.1687315E1,8.586667E0,1.2313652E1,1.5069916E1,1.399036E1,1.8090424E1,1.5594068E1,1.019104E1,0E0,0E0,0E0,0E0,0E0,0E0,0E0,0E0,0E0,0E0,0E0,0E0,0E0,0E0,0E0,0E0,0E0,0E0,0E0,0E0,0E0,0E0,0E0,0E0,0E0,0E0,0E0,0E0,0E0,0E0,0E0,0E0,0E0,0E0,0E0,0E0,0E0,0E0,0E0,0E0,0E0,0E0,0E0,0E0],"parents":[2147483647,0,0,1,1,2,2,3,3,4,4,5,5,7,7,8,8,9,9,10,10,11,11,12,12,13,13,14,14,15,15,16,16,17,17,18,18,19,19,20,20,21,21,22,22,23,23,24,24,26,26,28,28,29,29,30,30,31,31,32,32,33,33,34,34,35,35,36,36,37,37,38,38,39,39,40,40,41,41,42,42,43,43,44,44,45,45,46,46,47,47,48,48],"right_children":[2,4,6,8,10,12,-1,14,16,18,20,22,24,26,28,30,32,34,36,38,40,42,44,46,48,-1,50,-1,52,54,56,58,60,62,64,66,68,70,72,74,76,78,80,82,84,86,88,90,92,-1,-1,-1,-1,-1,-1,-1,-1,-1,-1,-1,-1,-1,-1,-1,-1,-1,-1,-1,-1,-1,-1,-1,-1,-1,-1,-1,-1,-1,-1,-1,-1,-1,-1,-1,-1,-1,-1,-1,-1,-1,-1,-1,-1],"split_conditions":[4E0,4E0,1.65E2,2.0250516E7,3E0,8E0,-7.554916E-2,-7.818315E-1,2.7142856E0,8E0,1.0076923E1,3E0,1.675E1,1.235E3,2.93E2,1E0,4E0,2.6666667E0,2.0250514E7,5E0,1.33E2,6E0,9.000158E0,1E1,4.1E2,-4.942742E-2,2.642857E0,5.2083004E-2,5.51E2,3.894E3,4E0,2.3333333E0,3.8E0,2.4E1,-2.2252093E-1,9.5E0,6.1666665E0,3.5384614E0,2E0,1.1961538E1,2.23E1,3.42E2,3.2E0,1.5E1,3E0,6.234898E-1,1E0,1.443E3,1.58E2,-3.667677E-2,1.1415111E-2,-4.1639622E-2,1.5494935E-2,3.238916E-2,3.7639316E-3,5.0014365E-2,2.9038211E-2,4.1277744E-2,2.6578879E-2,3.0669069E-2,1.5514552E-3,3.7100922E-2,1.8321548E-2,3.5248734E-2,1.1675492E-2,-1.2318495E-2,-5.8116075E-2,1.6374042E-2,-8.2992455E-3,4.4480167E-2,1.4599542E-2,5.3652795E-3,-8.234526E-3,-2.1559637E-2,4.4720985E-2,-2.0554787E-2,-4.654089E-2,-4.8328093E-3,1.42601775E-2,2.5763858E-2,-1.0810386E-2,2.785859E-2,-8.279373E-3,-2.2083836E-2,-4.802066E-2,-2.598174E-3,-2.0365672E-2,-3.9779317E-2,-2.0951621E-2,2.937916E-2,-3.207787E-2,-5.908973E-2,-3.5364483E-2],"split_indices":[18,20,6,10,14,11,0,36,20,11,24,14,28,8,7,13,15,16,10,24,5,3,29,20,5,0,24,0,7,7,15,16,24,2,37,16,20,24,22,28,28,5,20,31,22,37,15,8,6,0,0,0,0,0,0,0,0,0,0,0,0,0,0,0,0,0,0,0,0,0,0,0,0,0,0,0,0,0,0,0,0,0,0,0,0,0,0,0,0,0,0,0,0],"split_type":[0,0,0,0,0,0,0,0,0,0,0,0,0,0,0,0,0,0,0,0,0,0,0,0,0,0,0,0,0,0,0,0,0,0,0,0,0,0,0,0,0,0,0,0,0,0,0,0,0,0,0,0,0,0,0,0,0,0,0,0,0,0,0,0,0,0,0,0,0,0,0,0,0,0,0,0,0,0,0,0,0,0,0,0,0,0,0,0,0,0,0,0,0],"sum_hessian":[9.607129E3,6.3888403E3,3.218288E3,2.3519875E3,4.036853E3,2.873016E3,3.4527203E2,3.3756528E2,2.0144222E3,2.0204895E3,2.0163634E3,1.2915245E3,1.5814916E3,4.780671E1,2.8975854E2,9.006162E2,1.113806E3,1.5644269E3,4.5606262E2,1.4666318E3,5.4973157E2,7.961506E2,4.9537396E2,1.00396875E3,5.775229E2,9.264998E0,3.8541714E1,1.2526449E1,2.7723212E2,1.6673141E2,7.338848E2,8.946024E2,2.1920358E2,3.8156534E2,1.1828616E3,9.304579E1,3.6301685E2,3.230554E2,1.1435765E3,3.0853203E1,5.1887836E2,5.5125446E2,2.4489609E2,2.4187509E2,2.5349887E2,4.683489E2,5.356199E2,5.747403E1,5.200488E2,7.2747188E0,3.1266994E1,1.4004545E1,2.6322757E2,1.3279492E2,3.39365E1,6.5171014E2,8.2174644E1,1.9535767E2,6.9924475E2,6.6095406E1,1.5310818E2,2.5977563E2,1.2178972E2,1.07545975E2,1.0753156E3,5.2298176E1,4.0747616E1,1.4458174E2,2.184351E2,2.9132502E1,2.9392288E2,4.7511636E2,6.684601E2,1.5894266E1,1.4958937E1,3.996078E2,1.1927055E2,9.56935E1,4.5556097E2,1.52895975E1,2.2960649E2,2.4403534E1,2.1747156E2,9.6898285E1,1.5660059E2,1.8220944E2,2.8613947E2,2.9037256E2,2.4524728E2,1.1370348E1,4.610368E1,4.5630768E2,6.3741184E1],"tree_param":{"num_deleted":"0","num_feature":"38","num_nodes":"93","size_leaf_vector":"1"}},{"base_weights":[-1.0021119E-3,2.6031095E-1,-5.222078E-1,6.353504E-1,9.753699E-2,-4.043802E-1,-7.381986E-2,2.6525322E-1,7.215451E-1,2.2304294E-1,-1.8920392E-1,-9.218434E-2,-6.684481E-1,9.014829E-1,2.0618849E-1,9.1248214E-1,5.9983265E-1,3.583556E-1,2.7066926E-2,4.201957E-2,-4.2472342E-1,-8.840127E-3,-3.1530267E-1,1.8965709E-1,-7.5292844E-1,1.0696447E0,3.855666E-3,1.3334474E-1,6.1105305E-1,2.2568345E-1,9.5403016E-1,9.9963063E-1,5.542831E-1,1.7815407E-1,4.906347E-1,1.4293583E-1,-2.990801E-1,3.2366008E-1,-6.960981E-2,-1.03043884E-1,-4.8566905E-1,2.0407622E-1,-1.1927917E-1,-8.361604E-1,-2.4041352E-1,-1.4237138E-2,5.7883346E-1,-5.8649313E-1,-1.0192361E0,6.0444396E-2,2.3495235E-2,1.5264334E-2,-4.4252845E-3,-2.428115E-3,3.9753094E-2,4.7595464E-2,-1.8941145E-3,5.1437337E-2,3.8898047E-2,5.4019806E-3,5.4955073E-2,3.0530253E-2,1.2832294E-2,1.2564028E-2,-1.7506903E-2,1.1477377E-2,2.9071981E-2,1.7214406E-2,2.3149275E-3,7.7561885E-3,-2.2185277E-2,-5.819805E-3,2.1166578E-2,3.5102926E-3,-1.3018054E-2,-1.6127503E-2,2.8354272E-2,-1.4277947E-2,-3.154308E-2,1.9035138E-2,-1.0436293E-2,7.578378E-3,-1.1292624E-2,-4.9406793E-2,8.644229E-3,1.2144797E-2,-1.5863255E-2,1.3066274E-2,-1.2568596E-2,4.8722573E-2,1.2042343E-2,-3.2794487E-2,-1.2684095E-2,-5.4789286E-2,-2.1080775E-2],"categories":[],"categories_nodes":[],"categories_segments":[],"categories_sizes":[],"default_left":[0,0,0,0,0,0,0,0,0,0,0,0,0,0,0,0,0,0,0,0,0,0,0,0,0,0,0,0,0,0,0,0,0,0,0,0,0,0,0,0,0,0,0,0,0,0,0,0,0,0,0,0,0,0,0,0,0,0,0,0,0,0,0,0,0,0,0,0,0,0,0,0,0,0,0,0,0,0,0,0,0,0,0,0,0,0,0,0,0,0,0,0,0,0,0],"id":8,"left_children":[1,3,5,7,9,11,-1,13,15,17,19,21,23,25,27,29,31,33,35,37,39,41,43,45,47,49,-1,51,53,55,57,59,61,63,65,67,69,71,73,75,77,79,81,83,85,87,89,91,93,-1,-1,-1,-1,-1,-1,-1,-1,-1,-1,-1,-1,-1,-1,-1,-1,-1,-1,-1,-1,-1,-1,-1,-1,-1,-1,-1,-1,-1,-1,-1,-1,-1,-1,-1,-1,-1,-1,-1,-1,-1,-1,-1,-1,-1,-1],"loss_changes":[1.3040134E3,3.8909076E2,3.5809247E2,6.106958E1,1.6021207E2,2.3465396E2,0E0,1.334136E1,3.509149E1,8.204143E1,7.388784E1,2.428336E1,1.1218707E2,3.9502792E0,9.770702E0,1.670227E1,1.6238037E1,4.340323E1,4.795013E1,2.1624092E1,1.3013115E1,2.2486895E1,1.3349678E1,1.1163836E1,6.0920776E1,7.910099E-1,0E0,1.11521015E1,6.339411E0,7.2921257E0,5.708008E0,8.118744E0,1.4141907E1,3.024317E1,2.4650452E1,1.8150637E1,2.2011417E1,8.69112E0,1.3186751E1,1.6495344E1,1.5936432E1,2.3979113E1,1.826478E1,7.1229877E0,1.1810345E1,6.240285E0,5.863285E0,1.9660858E1,2.3511597E1,0E0,0E0,0E0,0E0,0E0,0E0,0E0,0E0,0E0,0E0,0E0,0E0,0E0,0E0,0E0,0E0,0E0,0E0,0E0,0E0,0E0,0E0,0E0,0E0,0E0,0E0,0E0,0E0,0E0,0E0,0E0,0E0,0E0,0E0,0E0,0E0,0E0,0E0,0E0,0E0,0E0,0E0,0E0,0E0,0E0,0E0],"parents":[2147483647,0,0,1,1,2,2,3,3,4,4,5,5,7,7,8,8,9,9,10,10,11,11,12,12,13,13,14,14,15,15,16,16,17,17,18,18,19,19,20,20,21,21,22,22,23,23,24,24,25,25,27,27,28,28,29,29,30,30,31,31,32,32,33,33,34,34,35,35,36,36,37,37,38,38,39,39,40,40,41,41,42,42,43,43,44,44,45,45,46,46,47,47,48,48],"right_children":[2,4,6,8,10,12,-1,14,16,18,20,22,24,26,28,30,32,34,36,38,40,42,44,46,48,50,-1,52,54,56,58,60,62,64,66,68,70,72,74,76,78,80,82,84,86,88,90,92,94,-1,-1,-1,-1,-1,-1,-1,-1,-1,-1,-1,-1,-1,-1,-1,-1,-1,-1,-1,-1,-1,-1,-1,-1,-1,-1,-1,-1,-1,-1,-1,-1,-1,-1,-1,-1,-1,-1,-1,-1,-1,-1,-1,-1,-1,-1],"split_conditions":[4E0,3.5714285E0,1.65E2,2.0250526E7,4E0,9.666667E0,-7.381986E-2,-2.2252093E-1,2.4E0,4E0,7.571429E0,6E0,1E0,3.375E3,1.8E3,1E0,-2.2252093E-1,-1E0,1.6E1,3E0,3E0,1.734E3,5.79E2,4.3388373E-1,2.1714285E1,5.9E1,3.855666E-3,5.9E1,1.325E3,4.97E2,5.9E1,-8.660254E-1,4E0,1.4571428E1,1E0,3.6224608E0,1.1E1,2.0250704E7,4E0,1.4433757E1,1.0166667E1,7.571429E0,1E0,8.714286E0,2.5419557E0,5.9E1,6E0,1.58E2,1.58E2,6.0444396E-2,2.3495235E-2,1.5264334E-2,-4.4252845E-3,-2.428115E-3,3.9753094E-2,4.7595464E-2,-1.8941145E-3,5.1437337E-2,3.8898047E-2,5.4019806E-3,5.4955073E-2,3.0530253E-2,1.2832294E-2,1.2564028E-2,-1.7506903E-2,1.1477377E-2,2.9071981E-2,1.7214406E-2,2.3149275E-3,7.7561885E-3,-2.2185277E-2,-5.819805E-3,2.1166578E-2,3.5102926E-3,-1.3018054E-2,-1.6127503E-2,2.8354272E-2,-1.4277947E-2,-3.154308E-2,1.9035138E-2,-1.0436293E-2,7.578378E-3,-1.1292624E-2,-4.9406793E-2,8.644229E-3,1.2144797E-2,-1.5863255E-2,1.3066274E-2,-1.2568596E-2,4.8722573E-2,1.2042343E-2,-3.2794487E-2,-1.2684095E-2,-5.4789286E-2,-2.1080775E-2],"split_indices":[18,20,6,10,15,20,0,37,20,11,24,3,11,7,5,11,37,32,19,14,14,7,9,36,24,6,0,6,7,5,6,35,15,24,11,25,2,10,3,17,24,20,13,20,25,6,1,6,6,0,0,0,0,0,0,0,0,0,0,0,0,0,0,0,0,0,0,0,0,0,0,0,0,0,0,0,0,0,0,0,0,0,0,0,0,0,0,0,0,0,0,0,0,0,0],"split_type":[0,0,0,0,0,0,0,0,0,0,0,0,0,0,0,0,0,0,0,0,0,0,0,0,0,0,0,0,0,0,0,0,0,0,0,0,0,0,0,0,0,0,0,0,0,0,0,0,0,0,0,0,0,0,0,0,0,0,0,0,0,0,0,0,0,0,0,0,0,0,0,0,0,0,0,0,0,0,0,0,0,0,0,0,0,0,0,0,0,0,0,0,0,0,0],"sum_hessian":[9.570216E3,6.3748926E3,3.1953237E3,1.927474E3,4.4474185E3,2.8467468E3,3.4857678E2,3.6586435E2,1.5616097E3,3.0939814E3,1.3534368E3,1.3059071E3,1.5408397E3,2.8512882E1,3.3735147E2,6.025462E2,9.590635E2,1.828983E3,1.2649984E3,6.83562E2,6.698748E2,9.525984E2,3.533087E2,1.3777037E2,1.4030695E3,2.3087032E1,5.425851E0,2.883728E2,4.8978683E1,3.5242928E1,5.673033E2,9.3582565E1,8.654809E2,7.7655084E2,1.0524323E3,9.3445026E2,3.305482E2,1.9320459E2,4.903574E2,1.0781811E2,5.620567E2,3.2446274E2,6.281356E2,4.168959E1,3.116191E2,9.15015E1,4.6268867E1,8.6761365E2,5.3545575E2,1.6952913E1,6.1341186E0,1.6229048E2,1.26082306E2,1.0885657E1,3.8093025E1,8.094777E0,2.7148151E1,3.91088E2,1.762153E2,9.912352E0,8.367022E1,7.257147E2,1.3976617E2,6.8321747E2,9.3333336E1,2.7368256E2,7.787497E2,3.010422E2,6.334081E2,7.962984E1,2.5091833E2,3.543183E1,1.5777275E2,2.83384E2,2.0697339E2,8.210918E1,2.5708933E1,2.3911757E2,3.2293912E2,2.2751372E2,9.6949036E1,1.768653E2,4.5127036E2,3.6354652E1,5.3349385E0,4.198137E1,2.6963773E2,4.203221E1,4.9469288E1,1.9445528E1,2.682334E1,7.160611E2,1.5155255E2,4.730305E2,6.2425262E1],"tree_param":{"num_deleted":"0","num_feature":"38","num_nodes":"95","size_leaf_vector":"1"}},{"base_weights":[-5.191065E-3,2.4329723E-1,-5.0039023E-1,4.7295475E-1,3.7105888E-2,-3.9098516E-1,-7.1686685E-2,5.39813E-1,9.0143345E-2,3.0247262E-1,-5.9135217E-2,-1.977748E-1,-7.757457E-1,2.4358565E-1,6.119722E-1,4.186098E-1,-2.5143057E-1,2.6896825E-1,8.074475E-1,9.435573E-2,-1.8998307E-1,-2.2510922E-2,-4.105695E-1,-4.184904E-1,-9.9176824E-1,4.1609013E-1,1.288408E-2,7.486731E-1,4.3834385E-1,3.5438663E-1,5.3309914E-2,4.6169335E-1,-3.2198307E-1,3.935665E-1,1.3957028E-1,9.86262E-1,1.1141198E-1,2.4666351E-1,-1.8276343E-1,-1.3359377E-1,-7.106761E-1,1.9244075E-1,-1.6161728E-1,-1.357557E-1,-5.36425E-1,-2.613417E-1,-8.0710024E-1,-1.0623896E0,-5.5134237E-1,-7.664328E-4,2.6973097E-2,-4.653376E-2,8.906544E-3,4.012871E-2,2.3883779E-2,2.2609584E-2,-4.212287E-2,2.94779E-2,3.5456547E-3,4.1606277E-2,-1.1829055E-2,2.7654707E-3,-2.2531064E-2,-1.396018E-3,2.3323255E-2,1.1854599E-2,-3.7370825E-3,5.609901E-2,1.3134371E-2,2.871773E-2,-1.7276943E-2,2.2534436E-2,6.1820424E-3,-4.1481648E-2,-3.8584888E-3,3.392659E-4,-1.3300031E-2,3.325129E-2,-4.0797718E-2,1.9813463E-2,-4.1616498E-4,1.4780867E-3,-1.8137775E-2,-1.184738E-2,2.2368018E-2,-3.0101974E-2,-8.219445E-3,-1.9774647E-2,1.0115815E-2,-5.3756535E-2,-1.1311481E-2,-4.6476435E-2,-6.657829E-2,-3.4629498E-2,2.3339031E-2],"categories":[],"categories_nodes":[],"categories_segments":[],"categories_sizes":[],"default_left":[0,0,0,0,0,0,0,0,0,0,0,0,0,0,0,0,0,0,0,0,0,0,0,0,0,0,0,0,0,0,0,0,0,0,0,0,0,0,0,0,0,0,0,0,0,0,0,0,0,0,0,0,0,0,0,0,0,0,0,0,0,0,0,0,0,0,0,0,0,0,0,0,0,0,0,0,0,0,0,0,0,0,0,0,0,0,0,0,0,0,0,0,0,0,0],"id":9,"left_children":[1,3,5,7,9,11,-1,13,15,17,19,21,23,25,27,29,31,33,35,37,39,41,43,45,47,49,51,53,55,57,-1,59,61,63,65,67,69,71,73,75,77,79,81,83,85,87,89,91,93,-1,-1,-1,-1,-1,-1,-1,-1,-1,-1,-1,-1,-1,-1,-1,-1,-1,-1,-1,-1,-1,-1,-1,-1,-1,-1,-1,-1,-1,-1,-1,-1,-1,-1,-1,-1,-1,-1,-1,-1,-1,-1,-1,-1,-1,-1],"loss_changes":[1.1712689E3,3.000336E2,3.2346423E2,7.6568726E1,8.541082E1,2.1143723E2,0E0,5.4157166E1,5.0531586E1,1.45167465E1,4.9329338E1,7.079499E1,7.248047E1,1.9979834E1,4.7885925E1,8.645813E0,1.1397228E1,1.334547E1,6.415634E0,4.780041E1,3.8649353E1,3.1281635E1,2.9452179E1,2.1595154E1,1.7064087E1,1.5382393E1,3.4196774E1,1.5814514E1,1.6831894E1,1.3976578E1,0E0,5.776804E0,9.908604E0,1.3139267E1,8.714897E0,3.4700966E0,3.2642307E0,1.8165073E1,2.722502E1,2.2311234E1,1.9769241E1,1.6859362E1,2.4484486E1,1.62609E1,1.4063324E1,1.6419796E1,1.5446671E1,1.5444092E1,1.3049444E1,0E0,0E0,0E0,0E0,0E0,0E0,0E0,0E0,0E0,0E0,0E0,0E0,0E0,0E0,0E0,0E0,0E0,0E0,0E0,0E0,0E0,0E0,0E0,0E0,0E0,0E0,0E0,0E0,0E0,0E0,0E0,0E0,0E0,0E0,0E0,0E0,0E0,0E0,0E0,0E0,0E0,0E0,0E0,0E0,0E0,0E0],"parents":[2147483647,0,0,1,1,2,2,3,3,4,4,5,5,7,7,8,8,9,9,10,10,11,11,12,12,13,13,14,14,15,15,16,16,17,17,18,18,19,19,20,20,21,21,22,22,23,23,24,24,25,25,26,26,27,27,28,28,29,29,31,31,32,32,33,33,34,34,35,35,36,36,37,37,38,38,39,39,40,40,41,41,42,42,43,43,44,44,45,45,46,46,47,47,48,48],"right_children":[2,4,6,8,10,12,-1,14,16,18,20,22,24,26,28,30,32,34,36,38,40,42,44,46,48,50,52,54,56,58,-1,60,62,64,66,68,70,72,74,76,78,80,82,84,86,88,90,92,94,-1,-1,-1,-1,-1,-1,-1,-1,-1,-1,-1,-1,-1,-1,-1,-1,-1,-1,-1,-1,-1,-1,-1,-1,-1,-1,-1,-1,-1,-1,-1,-1,-1,-1,-1,-1,-1,-1,-1,-1,-1,-1,-1,-1,-1,-1],"split_conditions":[4E0,3.6666667E0,1.65E2,4E0,3.872274E0,1.2E1,-7.1686685E-2,2.0250516E7,5.814815E0,8E0,3E0,7E0,1.2086957E1,5.9E1,2.5E0,7.6611576E0,2.8177226E0,4E0,1.571E3,7E0,2.23E1,1E0,7.4074073E0,6E0,1.58E2,2.025043E7,6.1E1,4E0,9.7958244E1,4.5E0,5.3309914E-2,2.935E3,6.827586E0,2.0250514E7,5.9E1,4.1190615E0,1.9E1,3E0,1E0,4E0,1.33E2,5.9E1,7.714286E0,2.0250906E7,1.58E2,2.0250828E7,3E0,5.9E1,6.229924E1,-7.664328E-4,2.6973097E-2,-4.653376E-2,8.906544E-3,4.012871E-2,2.3883779E-2,2.2609584E-2,-4.212287E-2,2.94779E-2,3.5456547E-3,4.1606277E-2,-1.1829055E-2,2.7654707E-3,-2.2531064E-2,-1.396018E-3,2.3323255E-2,1.1854599E-2,-3.7370825E-3,5.609901E-2,1.3134371E-2,2.871773E-2,-1.7276943E-2,2.2534436E-2,6.1820424E-3,-4.1481648E-2,-3.8584888E-3,3.392659E-4,-1.3300031E-2,3.325129E-2,-4.0797718E-2,1.9813463E-2,-4.1616498E-4,1.4780867E-3,-1.8137775E-2,-1.184738E-2,2.2368018E-2,-3.0101974E-2,-8.219445E-3,-1.9774647E-2,1.0115815E-2,-5.3756535E-2,-1.1311481E-2,-4.6476435E-2,-6.657829E-2,-3.4629498E-2,2.3339031E-2],"split_indices":[18,16,6,15,25,12,0,10,28,33,14,11,28,6,16,29,25,11,5,11,28,12,28,3,6,10,6,14,25,28,0,9,28,10,6,21,2,12,12,15,5,6,28,10,6,10,33,6,29,0,0,0,0,0,0,0,0,0,0,0,0,0,0,0,0,0,0,0,0,0,0,0,0,0,0,0,0,0,0,0,0,0,0,0,0,0,0,0,0,0,0,0,0,0,0],"split_type":[0,0,0,0,0,0,0,0,0,0,0,0,0,0,0,0,0,0,0,0,0,0,0,0,0,0,0,0,0,0,0,0,0,0,0,0,0,0,0,0,0,0,0,0,0,0,0,0,0,0,0,0,0,0,0,0,0,0,0,0,0,0,0,0,0,0,0,0,0,0,0,0,0,0,0,0,0,0,0,0,0,0,0,0,0,0,0,0,0,0,0,0,0,0,0],"sum_hessian":[9.514361E3,6.3358706E3,3.1784907E3,2.9959197E3,3.339951E3,2.84764E3,3.3085092E2,2.5495566E3,4.4636313E2,8.880563E2,2.4518948E3,1.8978888E3,9.49751E2,5.013904E2,2.0481663E3,2.2746678E2,2.1889633E2,8.358613E2,5.219492E1,1.128225E3,1.3236697E3,1.0421913E3,8.556975E2,3.6027322E2,5.894778E2,2.8571194E2,2.1567848E2,1.1419152E3,9.06251E2,2.0989937E2,1.7567417E1,1.8580881E1,2.0031546E2,4.2335443E2,4.125069E2,4.074877E1,1.1446148E1,7.2844446E2,3.9978052E2,1.1967689E3,1.2690083E2,4.0888428E2,6.33307E2,2.7034134E2,5.853562E2,2.5909924E2,1.0117399E2,5.0538837E2,8.4089424E1,6.3744553E1,2.2196739E2,3.0672022E1,1.8500645E2,9.488897E2,1.9302547E2,8.9791486E2,8.336137E0,1.1335066E2,9.6548706E1,1.1983507E1,6.597375E0,5.1024536E1,1.4929092E2,6.2404556E1,3.609499E2,2.8367557E2,1.2883131E2,3.326918E1,7.47959E0,5.5392494E0,5.9068985E0,2.7170282E2,4.567416E2,5.4044117E1,3.4573642E2,5.814509E2,6.1531793E2,8.197548E0,1.18703285E2,2.021744E2,2.067099E2,3.2531177E2,3.0799527E2,2.3152254E2,3.88188E1,4.963175E2,8.9038704E1,2.0135146E2,5.7747776E1,6.7947235E1,3.3226753E1,3.4458487E2,1.608035E2,7.449253E1,9.596895E0],"tree_param":{"num_deleted":"0","num_feature":"38","num_nodes":"95","size_leaf_vector":"1"}},{"base_weights":[1.2283451E-3,2.4047346E-1,-4.7901496E-1,4.2791915E-1,-3.9131068E-2,-3.0331665E-1,-9.668214E-1,6.274454E-1,2.8537482E-1,1.549938E-1,-2.041756E-1,-4.4372827E-2,-5.459264E-1,-3.604336E-1,-1.108899E0,2.1818155E-1,7.222216E-1,3.627034E-1,3.16769E-2,2.878386E-1,-2.0660312E-1,-3.6372837E-2,-4.9187386E-1,2.0338126E-1,-1.9706719E-1,-2.540652E-1,-7.3763466E-1,-1.03007905E-1,-7.6200056E-1,-9.8253775E-1,-1.3252839E0,8.279673E-1,1.6078901E-1,1.0428358E0,6.689739E-1,4.502125E-1,1.7624491E-1,3.5602608E-1,-1.6252366E-1,4.2374572E-1,6.475758E-2,-9.910467E-1,-8.729289E-2,1.0668247E-1,-1.955378E-1,-4.1894278E-1,-9.3732023E-1,5.7333354E-2,4.7900614E-1,-7.355361E-2,-4.36141E-1,-6.753932E-1,-1.9448759E-1,-1.4507747E-1,-7.8671503E-1,4.219846E-2,-1.9688004E-1,-3.0785983E-2,-9.906561E-1,-8.511713E-1,-1.2057868E0,-1.6695501E-2,-1.3569784E0,5.9179533E-2,1.5764434E-2,1.1719672E-2,-2.5680596E-2,1.6806481E-2,5.73253E-2,3.558071E-2,1.9420208E-2,1.2887189E-2,2.6729558E-2,5.550844E-3,2.3909075E-2,1.1745871E-2,4.2968504E-2,1.0828908E-3,-1.9357726E-2,8.7478375E-3,2.556184E-2,9.7004365E-4,3.0832157E-2,-5.7776447E-2,-7.613315E-3,-1.614797E-2,4.014672E-3,3.8941905E-2,2.837572E-3,-3.9627243E-2,-6.8261856E-3,-1.3250047E-2,-3.0204346E-2,-5.4084774E-2,1.4217336E-3,-8.185358E-3,2.0816524E-2,3.1839285E-2,1.0897627E-2,1.955499E-2,-6.9861724E-3,-2.9927706E-2,-9.7558005E-3,-4.4467743E-2,-9.0862205E-3,-3.835711E-4,-1.49978055E-2,7.803935E-3,-4.521855E-2,-4.365481E-2,-1.9034773E-2,-4.4468245E-3,-3.9007258E-2,-4.2762462E-2,2.2142632E-2,-1.7842745E-2,-5.3595673E-2,-6.769807E-2,-3.8696233E-2,-6.1974794E-2,-2.8658314E-2,-3.6738314E-2,-6.8711534E-2],"categories":[],"categories_nodes":[],"categories_segments":[],"categories_sizes":[],"default_left":[0,0,0,0,0,0,0,0,0,0,0,0,0,0,0,0,0,0,0,0,0,0,0,0,0,0,0,0,0,0,0,0,0,0,0,0,0,0,0,0,0,0,0,0,0,0,0,0,0,0,0,0,0,0,0,0,0,0,0,0,0,0,0,0,0,0,0,0,0,0,0,0,0,0,0,0,0,0,0,0,0,0,0,0,0,0,0,0,0,0,0,0,0,0,0,0,0,0,0,0,0,0,0,0,0,0,0,0,0,0,0,0,0,0,0,0,0,0,0,0,0,0,0],"id":10,"left_children":[1,3,5,7,9,11,13,15,17,19,21,23,25,27,29,31,33,35,37,39,41,43,45,47,49,51,53,55,57,59,61,63,65,67,69,71,73,75,77,79,81,83,85,87,89,91,93,95,97,99,101,103,105,107,109,-1,111,113,115,117,119,-1,121,-1,-1,-1,-1,-1,-1,-1,-1,-1,-1,-1,-1,-1,-1,-1,-1,-1,-1,-1,-1,-1,-1,-1,-1,-1,-1,-1,-1,-1,-1,-1,-1,-1,-1,-1,-1,-1,-1,-1,-1,-1,-1,-1,-1,-1,-1,-1,-1,-1,-1,-1,-1,-1,-1,-1,-1,-1,-1,-1,-1],"loss_changes":[1.0942697E3,3.332652E2,2.707085E2,1.0780621E2,8.1866745E1,1.4635233E2,7.121051E1,6.103766E1,4.3570633E1,5.652354E1,6.658293E1,4.283125E1,6.685068E1,1.651147E1,1.5688232E1,1.0166813E1,2.0374695E1,2.7583649E1,3.301861E1,2.5959114E1,2.9331581E1,1.996589E1,1.5594765E1,1.7267036E1,2.0567993E1,1.1706158E1,2.0762909E1,9.26653E0,1.0345203E1,1.0520142E1,6.5830383E0,3.708374E0,1.3996658E1,1.2210083E1,1.2593018E1,1.8453217E1,1.0626732E1,1.1455105E1,1.3612082E1,1.1366287E1,8.125008E0,5.2381516E0,1.1013446E1,1.5320001E1,1.4313708E1,1.2152542E1,9.88736E0,2.2749517E1,5.773781E0,1.4366258E1,9.000549E0,5.7470264E0,8.314798E0,1.3634155E1,2.2670166E1,0E0,5.681147E0,7.4919586E0,1.5492058E0,8.620331E0,1.7315521E0,0E0,2.96875E-1,0E0,0E0,0E0,0E0,0E0,0E0,0E0,0E0,0E0,0E0,0E0,0E0,0E0,0E0,0E0,0E0,0E0,0E0,0E0,0E0,0E0,0E0,0E0,0E0,0E0,0E0,0E0,0E0,0E0,0E0,0E0,0E0,0E0,0E0,0E0,0E0,0E0,0E0,0E0,0E0,0E0,0E0,0E0,0E0,0E0,0E0,0E0,0E0,0E0,0E0,0E0,0E0,0E0,0E0,0E0,0E0,0E0,0E0,0E0,0E0],"parents":[2147483647,0,0,1,1,2,2,3,3,4,4,5,5,6,6,7,7,8,8,9,9,10,10,11,11,12,12,13,13,14,14,15,15,16,16,17,17,18,18,19,19,20,20,21,21,22,22,23,23,24,24,25,25,26,26,27,27,28,28,29,29,30,30,31,31,32,32,33,33,34,34,35,35,36,36,37,37,38,38,39,39,40,40,41,41,42,42,43,43,44,44,45,45,46,46,47,47,48,48,49,49,50,50,51,51,52,52,53,53,54,54,56,56,57,57,58,58,59,59,60,60,62,62],"right_children":[2,4,6,8,10,12,14,16,18,20,22,24,26,28,30,32,34,36,38,40,42,44,46,48,50,52,54,56,58,60,62,64,66,68,70,72,74,76,78,80,82,84,86,88,90,92,94,96,98,100,102,104,106,108,110,-1,112,114,116,118,120,-1,122,-1,-1,-1,-1,-1,-1,-1,-1,-1,-1,-1,-1,-1,-1,-1,-1,-1,-1,-1,-1,-1,-1,-1,-1,-1,-1,-1,-1,-1,-1,-1,-1,-1,-1,-1,-1,-1,-1,-1,-1,-1,-1,-1,-1,-1,-1,-1,-1,-1,-1,-1,-1,-1,-1,-1,-1,-1,-1,-1,-1],"split_conditions":[4E0,5.714286E0,3E0,3.2E0,3E0,8E0,4E0,2.0250526E7,4E0,7E0,1.0076923E1,1E0,1.0142858E1,1E1,4E0,-2.2252093E-1,2.1538463E0,2.4E1,4.909091E0,4E0,1E0,4E0,2.8E1,4.3388373E-1,3E0,1.1547005E0,2.51E2,8.04E2,1.05E1,1.2E1,-2.2252093E-1,2E0,7.357143E0,1E0,4E0,2.8199966E0,2.0250828E7,4.5092497E0,4E0,1E0,2.0250916E7,1.45E2,2.025063E7,4.769231E0,3.488075E0,1.157E3,1.634E3,2.025052E7,2.0250626E7,2.6509957E0,5E0,1.347E3,6.181818E0,2.0250806E7,2.0250828E7,4.219846E-2,9E0,8.899761E0,6E0,6.285714E0,2.5E1,-1.6695501E-2,2.0250522E7,5.9179533E-2,1.5764434E-2,1.1719672E-2,-2.5680596E-2,1.6806481E-2,5.73253E-2,3.558071E-2,1.9420208E-2,1.2887189E-2,2.6729558E-2,5.550844E-3,2.3909075E-2,1.1745871E-2,4.2968504E-2,1.0828908E-3,-1.9357726E-2,8.7478375E-3,2.556184E-2,9.7004365E-4,3.0832157E-2,-5.7776447E-2,-7.613315E-3,-1.614797E-2,4.014672E-3,3.8941905E-2,2.837572E-3,-3.9627243E-2,-6.8261856E-3,-1.3250047E-2,-3.0204346E-2,-5.4084774E-2,1.4217336E-3,-8.185358E-3,2.0816524E-2,3.1839285E-2,1.0897627E-2,1.955499E-2,-6.9861724E-3,-2.9927706E-2,-9.7558005E-3,-4.4467743E-2,-9.0862205E-3,-3.835711E-4,-1.49978055E-2,7.803935E-3,-4.521855E-2,-4.365481E-2,-1.9034773E-2,-4.4468245E-3,-3.9007258E-2,-4.2762462E-2,2.2142632E-2,-1.7842745E-2,-5.3595673E-2,-6.769807E-2,-3.8696233E-2,-6.1974794E-2,-2.8658314E-2,-3.6738314E-2,-6.8711534E-2],"split_indices":[18,20,26,20,14,11,14,10,15,11,24,13,20,11,30,37,24,2,24,12,12,15,12,36,22,17,5,8,16,18,37,11,24,13,15,21,10,17,3,11,10,31,10,24,21,5,5,10,10,25,18,5,24,10,10,0,13,29,2,24,22,0,10,0,0,0,0,0,0,0,0,0,0,0,0,0,0,0,0,0,0,0,0,0,0,0,0,0,0,0,0,0,0,0,0,0,0,0,0,0,0,0,0,0,0,0,0,0,0,0,0,0,0,0,0,0,0,0,0,0,0,0,0],"split_type":[0,0,0,0,0,0,0,0,0,0,0,0,0,0,0,0,0,0,0,0,0,0,0,0,0,0,0,0,0,0,0,0,0,0,0,0,0,0,0,0,0,0,0,0,0,0,0,0,0,0,0,0,0,0,0,0,0,0,0,0,0,0,0,0,0,0,0,0,0,0,0,0,0,0,0,0,0,0,0,0,0,0,0,0,0,0,0,0,0,0,0,0,0,0,0,0,0,0,0,0,0,0,0,0,0,0,0,0,0,0,0,0,0,0,0,0,0,0,0,0,0,0,0],"sum_hessian":[9.520215E3,6.3553477E3,3.1648672E3,3.8042747E3,2.5510728E3,2.329335E3,8.355322E2,1.5821527E3,2.222122E3,1.1720394E3,1.3790333E3,1.1280817E3,1.2012533E3,1.600815E2,6.7545074E2,2.989372E2,1.2832156E3,1.7020682E3,5.200537E2,8.5764075E2,3.143987E2,8.726514E2,5.0638187E2,4.2964417E2,6.9843744E2,4.7828015E2,7.2297314E2,9.923113E1,6.085037E1,4.3371796E2,2.4173277E2,2.3255573E1,2.756816E2,1.7720193E2,1.1060137E3,1.1561132E3,5.45955E2,1.9433252E2,3.2572122E2,5.3155536E2,3.260854E2,3.9465958E1,2.7493277E2,4.5960022E2,4.130512E2,4.3866635E2,6.7715515E1,2.8265173E2,1.4699243E2,4.6251846E2,2.3591902E2,5.6483322E1,4.217968E2,5.606296E1,6.6691016E2,7.412068E0,9.181907E1,1.5140232E1,4.5710136E1,2.793898E2,1.5432814E2,8.301325E0,2.3343146E2,1.2070469E1,1.1185105E1,2.4986446E2,2.5817156E1,2.3877968E1,1.5332397E2,9.571236E2,1.4889005E2,3.551975E2,8.009157E2,4.5148605E2,9.446897E1,1.591676E2,3.516492E1,1.7972302E2,1.459982E2,1.4015474E2,3.914006E2,3.0340182E2,2.268357E1,3.226451E1,7.2014494E0,1.1373565E2,1.6119711E2,2.9623173E1,4.2997705E2,3.4768368E1,3.7828284E2,2.4246593E2,1.9620042E2,5.879015E1,8.925367E0,1.7543988E2,1.0721184E2,8.9585655E1,5.7406784E1,5.6242664E1,4.062758E2,1.3892421E2,9.69948E1,3.8145172E1,1.8338152E1,1.5331822E2,2.684786E2,4.1185047E1,1.4877912E1,5.478148E2,1.1909534E2,7.9569695E1,1.2249374E1,5.013303E0,1.0126929E1,6.559621E0,3.9150517E1,3.2633278E1,2.4675653E2,1.445492E2,9.778953E0,8.806191E0,2.2462526E2],"tree_param":{"num_deleted":"0","num_feature":"38","num_nodes":"123","size_leaf_vector":"1"}},{"base_weights":[-7.510653E-4,2.2409977E-1,-4.5346257E-1,5.609049E-1,7.911434E-2,-3.4793183E-1,-6.9070354E-2,2.3918009E-1,6.546308E-1,1.826369E-1,-1.5835102E-1,-1.6805568E-1,-7.065029E-1,1.0732183E-1,5.576154E-1,7.846317E-1,4.9741572E-1,3.0462903E-1,4.9070213E-3,1.9970243E-1,-3.0278167E-1,1.03742264E-1,-2.683501E-1,-4.685678E-1,-9.671639E-1,3.6238782E-2,6.234467E-1,1.0337878E-1,6.877879E-1,4.4100282E-1,8.492461E-1,6.9314355E-1,4.2136556E-1,4.275329E-1,1.3551734E-1,1.1676544E-1,-3.1094214E-1,1.3644774E-1,1.040231E0,-2.0400347E-1,-5.5422586E-1,3.457813E-1,-1.3161018E-1,-3.344467E-2,-4.4811746E-1,-3.2619074E-1,-7.079459E-1,-1.0393093E0,-4.0288186E-1,4.163254E-3,-2.8752847E-2,9.5505705E-3,4.7195356E-2,2.03749E-2,-3.497833E-2,5.2754432E-2,2.5433918E-2,2.8891355E-2,-4.4255103E-3,4.6225093E-2,3.233709E-2,4.3195195E-2,2.195377E-2,3.5576705E-2,1.643513E-2,8.900392E-3,2.5831027E-2,1.0212556E-2,-1.5946327E-2,-1.9255133E-2,7.130058E-3,-5.8021702E-2,-1.1044918E-2,8.503246E-3,-5.6886226E-2,6.47637E-2,3.178309E-2,-4.944421E-3,-2.1127328E-2,3.7162863E-2,-3.0943424E-2,3.2964587E-2,9.497594E-3,-5.6298982E-2,7.4392552E-3,-9.684524E-3,7.698425E-3,-5.1670186E-3,-2.5341874E-2,2.05957E-2,-1.9844182E-2,-2.7588198E-2,-5.2529663E-2,-4.187685E-2,-6.749665E-2,-3.0856093E-2,2.8252263E-2],"categories":[],"categories_nodes":[],"categories_segments":[],"categories_sizes":[],"default_left":[0,0,0,0,0,0,0,0,0,0,0,0,0,0,0,0,0,0,0,0,0,0,0,0,0,0,0,0,0,0,0,0,0,0,0,0,0,0,0,0,0,0,0,0,0,0,0,0,0,0,0,0,0,0,0,0,0,0,0,0,0,0,0,0,0,0,0,0,0,0,0,0,0,0,0,0,0,0,0,0,0,0,0,0,0,0,0,0,0,0,0,0,0,0,0,0,0],"id":11,"left_children":[1,3,5,7,9,11,-1,13,15,17,19,21,23,25,27,29,31,33,35,37,39,41,43,45,47,49,51,53,55,57,59,61,63,65,67,69,71,73,75,77,79,81,83,85,87,89,91,93,95,-1,-1,-1,-1,-1,-1,-1,-1,-1,-1,-1,-1,-1,-1,-1,-1,-1,-1,-1,-1,-1,-1,-1,-1,-1,-1,-1,-1,-1,-1,-1,-1,-1,-1,-1,-1,-1,-1,-1,-1,-1,-1,-1,-1,-1,-1,-1,-1],"loss_changes":[9.650149E2,3.0914252E2,3.069533E2,5.705652E1,1.08971954E2,1.8205185E2,0E0,1.8006468E1,2.9221985E1,6.6887405E1,6.972873E1,5.1479256E1,5.748474E1,1.1229083E1,7.239422E0,1.6954681E1,9.323456E0,3.7861343E1,4.4521576E1,2.0218838E1,2.3541245E1,2.9134748E1,5.812684E1,1.6390083E1,1.7269135E1,7.922618E0,4.670477E0,8.020474E0,5.187561E0,9.680149E0,8.912903E0,7.1319656E0,1.2608971E1,2.3275726E1,2.4277744E1,1.2159101E1,2.455202E1,1.5843569E1,9.184494E-1,1.5776487E1,2.3494942E1,1.1972597E1,7.279894E1,1.8080969E1,1.5633774E1,1.6809708E1,8.504166E0,2.2343567E1,1.1951022E1,0E0,0E0,0E0,0E0,0E0,0E0,0E0,0E0,0E0,0E0,0E0,0E0,0E0,0E0,0E0,0E0,0E0,0E0,0E0,0E0,0E0,0E0,0E0,0E0,0E0,0E0,0E0,0E0,0E0,0E0,0E0,0E0,0E0,0E0,0E0,0E0,0E0,0E0,0E0,0E0,0E0,0E0,0E0,0E0,0E0,0E0,0E0,0E0],"parents":[2147483647,0,0,1,1,2,2,3,3,4,4,5,5,7,7,8,8,9,9,10,10,11,11,12,12,13,13,14,14,15,15,16,16,17,17,18,18,19,19,20,20,21,21,22,22,23,23,24,24,25,25,26,26,27,27,28,28,29,29,30,30,31,31,32,32,33,33,34,34,35,35,36,36,37,37,38,38,39,39,40,40,41,41,42,42,43,43,44,44,45,45,46,46,47,47,48,48],"right_children":[2,4,6,8,10,12,-1,14,16,18,20,22,24,26,28,30,32,34,36,38,40,42,44,46,48,50,52,54,56,58,60,62,64,66,68,70,72,74,76,78,80,82,84,86,88,90,92,94,96,-1,-1,-1,-1,-1,-1,-1,-1,-1,-1,-1,-1,-1,-1,-1,-1,-1,-1,-1,-1,-1,-1,-1,-1,-1,-1,-1,-1,-1,-1,-1,-1,-1,-1,-1,-1,-1,-1,-1,-1,-1,-1,-1,-1,-1,-1,-1,-1],"split_conditions":[4E0,3.5714285E0,1.65E2,2.0250602E7,4E0,1.2E1,-6.9070354E-2,4.3388373E-1,2.7142856E0,4E0,6.3E0,1E0,2.0428572E1,1.897E3,1.374E3,1E0,1.245E3,4E0,1.6E1,1.0023781E1,1.25E1,5.9E1,7.76E0,4E0,1.58E2,2.8E1,2.623E3,3.503E3,1.0954452E0,3.894E3,5.9E1,3.1527069E0,9E0,1E0,1.3571428E1,2.0250508E7,1E0,1.65E2,2.025081E7,2.4E1,1.33E2,1.754E3,6.1E1,1E0,6.142857E0,-2.2252093E-1,1.675E1,5.9E1,1.506E3,4.163254E-3,-2.8752847E-2,9.5505705E-3,4.7195356E-2,2.03749E-2,-3.497833E-2,5.2754432E-2,2.5433918E-2,2.8891355E-2,-4.4255103E-3,4.6225093E-2,3.233709E-2,4.3195195E-2,2.195377E-2,3.5576705E-2,1.643513E-2,8.900392E-3,2.5831027E-2,1.0212556E-2,-1.5946327E-2,-1.9255133E-2,7.130058E-3,-5.8021702E-2,-1.1044918E-2,8.503246E-3,-5.6886226E-2,6.47637E-2,3.178309E-2,-4.944421E-3,-2.1127328E-2,3.7162863E-2,-3.0943424E-2,3.2964587E-2,9.497594E-3,-5.6298982E-2,7.4392552E-3,-9.684524E-3,7.698425E-3,-5.1670186E-3,-2.5341874E-2,2.05957E-2,-1.9844182E-2,-2.7588198E-2,-5.2529663E-2,-4.187685E-2,-6.749665E-2,-3.0856093E-2,2.8252263E-2],"split_indices":[18,20,6,10,15,12,0,36,20,11,28,12,20,5,8,13,7,12,19,21,28,6,28,22,6,2,9,7,21,7,6,25,2,11,20,10,12,6,10,2,5,8,6,15,20,37,28,6,5,0,0,0,0,0,0,0,0,0,0,0,0,0,0,0,0,0,0,0,0,0,0,0,0,0,0,0,0,0,0,0,0,0,0,0,0,0,0,0,0,0,0,0,0,0,0,0,0],"split_type":[0,0,0,0,0,0,0,0,0,0,0,0,0,0,0,0,0,0,0,0,0,0,0,0,0,0,0,0,0,0,0,0,0,0,0,0,0,0,0,0,0,0,0,0,0,0,0,0,0,0,0,0,0,0,0,0,0,0,0,0,0,0,0,0,0,0,0,0,0,0,0,0,0,0,0,0,0,0,0,0,0,0,0,0,0,0,0,0,0,0,0,0,0,0,0,0,0],"sum_hessian":[9.475988E3,6.3318843E3,3.1441042E3,1.9035222E3,4.428362E3,2.825618E3,3.1848648E2,4.3127878E2,1.4722435E3,3.0845437E3,1.343818E3,1.8838208E3,9.417971E2,3.0710165E2,1.2417711E2,8.011532E2,6.7109033E2,1.8278998E3,1.256644E3,3.85839E2,9.57979E2,5.0748096E2,1.3763398E3,4.954877E2,4.4630942E2,2.719778E2,3.5123833E1,2.8629854E1,9.554726E1,1.2952385E2,6.7162933E2,1.8287843E2,4.8821188E2,1.0564587E3,7.714411E2,9.2915845E2,3.2748553E2,3.611072E2,2.4731781E1,6.90673E2,2.67306E2,2.4993329E2,2.5754767E2,5.9793506E2,7.784047E2,3.139186E2,1.815691E2,3.940659E2,5.224353E1,2.5430554E2,1.7672276E1,1.644151E1,1.8682323E1,2.1569748E1,7.0601063E0,2.7930412E1,6.7616844E1,1.0293276E2,2.6591084E1,4.841008E2,1.8752855E2,1.06263855E2,7.661457E1,1.146756E2,3.735363E2,2.798229E2,7.766358E2,6.7123865E2,1.0020243E2,4.3939316E1,8.852191E2,2.9000774E1,2.9848477E2,3.5358978E2,7.517411E0,1.2316793E1,1.2414988E1,4.6863235E2,2.2204065E2,1.1615766E1,2.5569023E2,8.062395E1,1.6930934E2,5.5401577E1,2.0214609E2,3.225815E2,2.7535358E2,1.1433063E2,6.640741E2,2.6470617E1,2.8744797E2,1.2850688E2,5.3062225E1,2.435665E2,1.5049937E2,4.3453705E1,8.789827E0],"tree_param":{"num_deleted":"0","num_feature":"38","num_nodes":"97","size_leaf_vector":"1"}},{"base_weights":[3.3488772E-3,1.3118643E-1,-7.3741335E-1,3.6568317E-1,-8.9169E-2,-5.4196928E-2,-8.6563164E-1,5.758084E-1,2.2065344E-1,6.514467E-2,-2.7492255E-1,6.7880094E-2,-9.4061816E-1,-6.514307E-1,-1.0984899E0,2.1704815E-1,6.686475E-1,3.0539024E-1,-6.079056E-2,4.100827E-1,3.1610996E-2,-6.608203E-2,-4.2431986E-1,2.5109813E-1,-1.16877005E-1,-1.4105051E-2,-1.1213049E0,-5.289757E-1,-1.0853741E0,-9.683613E-1,-1.2634223E0,4.2490907E-2,5.177237E-1,8.8757986E-1,5.586106E-1,4.633155E-1,2.2310957E-1,2.2738637E-1,-1.9439583E-1,1.06857724E-1,6.36022E-1,1.5209385E-2,7.0713335E-1,1.22927174E-1,-2.4393216E-1,-3.0379644E-1,-6.927651E-1,1.14019416E-1,8.6863E-1,-3.5503736E-1,2.8051418E-1,-1.3777963E-2,-6.7987464E-2,-3.1060567E-1,-6.5008575E-1,-5.7755755E-3,-1.1258228E0,-8.2660586E-1,-1.1557984E0,-5.9816833E-3,-1.3013796E0,1.1150228E-2,-8.342544E-3,3.4984093E-2,1.6475048E-4,5.3778082E-2,3.976858E-2,3.953063E-2,2.4420006E-2,1.7168669E-2,3.3124667E-2,5.855124E-3,1.9138655E-2,-2.6787787E-3,2.86011E-2,-3.771498E-4,-2.1975257E-2,1.4132223E-2,-3.3048593E-2,4.0974505E-2,7.5751157E-3,4.817386E-3,-5.959616E-3,-6.674436E-3,4.1305613E-2,3.751892E-3,4.1831963E-2,-2.5252362E-3,-2.9058015E-2,-5.6314333E-3,-2.108646E-2,1.8354477E-2,-3.8321078E-2,3.8272694E-2,-1.7084202E-3,1.3297032E-2,5.9283406E-2,9.979374E-4,-3.56774E-2,4.2802393E-2,8.419895E-4,-6.6454248E-3,-3.4449317E-2,-3.554477E-2,-9.468612E-3,-2.1783443E-2,-5.7674926E-2,-5.0831057E-2,-3.176859E-2,-5.9937567E-2,-1.904241E-2,-2.7721439E-2,-6.607633E-2],"categories":[],"categories_nodes":[],"categories_segments":[],"categories_sizes":[],"default_left":[0,0,0,0,0,0,0,0,0,0,0,0,0,0,0,0,0,0,0,0,0,0,0,0,0,0,0,0,0,0,0,0,0,0,0,0,0,0,0,0,0,0,0,0,0,0,0,0,0,0,0,0,0,0,0,0,0,0,0,0,0,0,0,0,0,0,0,0,0,0,0,0,0,0,0,0,0,0,0,0,0,0,0,0,0,0,0,0,0,0,0,0,0,0,0,0,0,0,0,0,0,0,0,0,0,0,0,0,0,0,0,0,0],"id":12,"left_children":[1,3,5,7,9,11,13,15,17,19,21,23,25,27,29,31,33,35,37,39,41,43,45,47,49,-1,51,53,55,57,59,61,63,65,67,69,71,73,75,77,79,81,83,85,87,89,91,93,95,97,99,-1,-1,101,103,-1,105,107,109,-1,111,-1,-1,-1,-1,-1,-1,-1,-1,-1,-1,-1,-1,-1,-1,-1,-1,-1,-1,-1,-1,-1,-1,-1,-1,-1,-1,-1,-1,-1,-1,-1,-1,-1,-1,-1,-1,-1,-1,-1,-1,-1,-1,-1,-1,-1,-1,-1,-1,-1,-1,-1,-1],"loss_changes":[8.924157E2,4.1541284E2,1.2131268E2,1.1834668E2,1.1887303E2,2.4174725E1,5.6628906E1,5.2539E1,5.5095703E1,2.6134808E1,5.8601578E1,6.7197385E0,2.4438744E0,3.1278595E1,9.268799E0,1.7209766E1,2.924176E1,2.2779465E1,2.0699013E1,1.3512203E1,2.2809933E1,2.65389E1,3.494803E1,8.12702E0,9.564186E0,0E0,3.2057152E0,1.2257492E1,4.8290405E0,6.3893127E0,9.897766E0,8.055532E0,1.1227901E1,5.3489075E0,1.2862396E1,1.390921E1,1.9676067E1,1.660123E1,1.6762499E1,1.2228972E1,9.804718E0,2.2053091E1,5.1718864E0,1.2865522E1,2.639964E1,1.699485E1,2.6977982E1,8.221438E0,2.5950308E0,8.5490055E0,5.6520796E0,0E0,0E0,1.1582815E1,8.274231E0,0E0,1.2664032E0,5.426697E0,3.3362122E0,0E0,1.8154907E0,0E0,0E0,0E0,0E0,0E0,0E0,0E0,0E0,0E0,0E0,0E0,0E0,0E0,0E0,0E0,0E0,0E0,0E0,0E0,0E0,0E0,0E0,0E0,0E0,0E0,0E0,0E0,0E0,0E0,0E0,0E0,0E0,0E0,0E0,0E0,0E0,0E0,0E0,0E0,0E0,0E0,0E0,0E0,0E0,0E0,0E0,0E0,0E0,0E0,0E0,0E0,0E0],"parents":[2147483647,0,0,1,1,2,2,3,3,4,4,5,5,6,6,7,7,8,8,9,9,10,10,11,11,12,12,13,13,14,14,15,15,16,16,17,17,18,18,19,19,20,20,21,21,22,22,23,23,24,24,26,26,27,27,28,28,29,29,30,30,31,31,32,32,33,33,34,34,35,35,36,36,37,37,38,38,39,39,40,40,41,41,42,42,43,43,44,44,45,45,46,46,47,47,48,48,49,49,50,50,53,53,54,54,56,56,57,57,58,58,60,60],"right_children":[2,4,6,8,10,12,14,16,18,20,22,24,26,28,30,32,34,36,38,40,42,44,46,48,50,-1,52,54,56,58,60,62,64,66,68,70,72,74,76,78,80,82,84,86,88,90,92,94,96,98,100,-1,-1,102,104,-1,106,108,110,-1,112,-1,-1,-1,-1,-1,-1,-1,-1,-1,-1,-1,-1,-1,-1,-1,-1,-1,-1,-1,-1,-1,-1,-1,-1,-1,-1,-1,-1,-1,-1,-1,-1,-1,-1,-1,-1,-1,-1,-1,-1,-1,-1,-1,-1,-1,-1,-1,-1,-1,-1,-1,-1],"split_conditions":[4E0,4.6666665E0,1E0,3.2857144E0,8.142858E0,1.6E1,4E0,1E0,4E0,-2.2252093E-1,6E0,4E0,5.66E2,8E0,4E0,4.3388373E-1,2.1666667E0,2.6666667E0,5.6E0,4.2426405E0,1.0123053E1,3E0,1.8E1,4.21E3,1.342E3,-1.4105051E-2,1.4E1,8.392858E0,1.91E2,1.1E1,1E0,3E0,3.396E3,2.1538463E0,1.066E3,8.110839E0,4.3388373E-1,3.130495E0,4E0,6E0,3.54E3,6.142857E0,6E0,2.0250916E7,1.2357142E1,6.234898E-1,2.51E2,3.6554942E0,7.818315E-1,7.38E2,1.191E3,-1.3777963E-2,-6.7987464E-2,3.89E3,1.651E3,-5.7755755E-3,1E1,5E0,2.5E1,-5.9816833E-3,-2.2252093E-1,1.1150228E-2,-8.342544E-3,3.4984093E-2,1.6475048E-4,5.3778082E-2,3.976858E-2,3.953063E-2,2.4420006E-2,1.7168669E-2,3.3124667E-2,5.855124E-3,1.9138655E-2,-2.6787787E-3,2.86011E-2,-3.771498E-4,-2.1975257E-2,1.4132223E-2,-3.3048593E-2,4.0974505E-2,7.5751157E-3,4.817386E-3,-5.959616E-3,-6.674436E-3,4.1305613E-2,3.751892E-3,4.1831963E-2,-2.5252362E-3,-2.9058015E-2,-5.6314333E-3,-2.108646E-2,1.8354477E-2,-3.8321078E-2,3.8272694E-2,-1.7084202E-3,1.3297032E-2,5.9283406E-2,9.979374E-4,-3.56774E-2,4.2802393E-2,8.419895E-4,-6.6454248E-3,-3.4449317E-2,-3.554477E-2,-9.468612E-3,-2.1783443E-2,-5.7674926E-2,-5.0831057E-2,-3.176859E-2,-5.9937567E-2,-1.904241E-2,-2.7721439E-2,-6.607633E-2],"split_indices":[22,16,13,20,20,11,26,12,15,37,11,3,5,22,30,36,20,16,28,17,21,14,20,8,5,0,20,28,5,18,15,19,7,24,7,25,36,21,3,14,7,20,1,10,28,37,5,25,36,5,7,0,0,8,5,0,12,18,22,0,37,0,0,0,0,0,0,0,0,0,0,0,0,0,0,0,0,0,0,0,0,0,0,0,0,0,0,0,0,0,0,0,0,0,0,0,0,0,0,0,0,0,0,0,0,0,0,0,0,0,0,0,0],"split_type":[0,0,0,0,0,0,0,0,0,0,0,0,0,0,0,0,0,0,0,0,0,0,0,0,0,0,0,0,0,0,0,0,0,0,0,0,0,0,0,0,0,0,0,0,0,0,0,0,0,0,0,0,0,0,0,0,0,0,0,0,0,0,0,0,0,0,0,0,0,0,0,0,0,0,0,0,0,0,0,0,0,0,0,0,0,0,0,0,0,0,0,0,0,0,0,0,0,0,0,0,0,0,0,0,0,0,0,0,0,0,0,0,0],"sum_hessian":[9.4204795E3,8.0355244E3,1.3849553E3,3.8924314E3,4.1430933E3,2.194156E2,1.1655398E3,1.586791E3,2.3056404E3,2.2634802E3,1.8796129E3,1.9437985E2,2.503576E1,6.1127057E2,5.5426917E2,3.278039E2,1.258987E3,1.7722415E3,5.333989E2,1.982968E2,2.0651836E3,7.8534436E2,1.0942686E3,9.750761E1,9.6872246E1,6.6124616E0,1.84233E1,4.8038E2,1.3089055E2,3.1784448E2,2.3642473E2,2.090532E2,1.1875068E2,4.160873E2,8.428998E2,6.034786E2,1.1687628E3,1.682796E2,3.651193E2,8.6114334E1,1.12182465E2,2.0183707E3,4.6812756E1,3.807548E2,4.045896E2,7.584047E2,3.3586377E2,8.186627E1,1.5641332E1,6.0861916E1,3.601033E1,5.092225E0,1.3331074E1,1.7421426E2,3.0616574E2,5.648039E0,1.25242516E2,1.8744025E2,1.3040424E2,7.9452305E0,2.2847949E2,1.1244231E2,9.661089E1,8.704679E1,3.1703886E1,1.2955487E2,2.8653244E2,1.9072556E2,6.521742E2,3.8037317E2,2.2310542E2,7.0486646E2,4.6389636E2,9.3474266E1,7.480534E1,2.0858182E2,1.5653749E2,7.120638E1,1.4907953E1,8.021803E1,3.1964432E1,1.2593882E3,7.589826E2,5.6697617E0,4.1142994E1,3.590156E2,2.1739185E1,2.5876382E2,1.4582578E2,2.9117352E2,4.6723123E2,2.1218718E1,3.1464505E2,1.375281E1,6.8113464E1,6.7681527E0,8.873179E0,3.05338E1,3.0328114E1,9.783336E0,2.6226994E1,1.2056205E2,5.3652218E1,2.693156E2,3.685013E1,6.2589645E0,1.1898355E2,8.9427536E1,9.80127E1,1.2239737E2,8.006863E0,7.62919E0,2.208503E2],"tree_param":{"num_deleted":"0","num_feature":"38","num_nodes":"113","size_leaf_vector":"1"}},{"base_weights":[1.560031E-3,2.1061377E-1,-4.232061E-1,5.2005804E-1,7.898026E-2,-3.2467058E-1,-1.3323357E0,1.0159538E-1,5.7453334E-1,2.019965E-1,-8.521194E-2,-1.5812857E-1,-6.6969925E-1,-3.137027E-2,-6.707093E-2,-6.5474324E-2,4.1677755E-1,8.2495356E-1,4.796227E-1,3.1909946E-1,2.8035404E-2,3.256472E-2,-4.109908E-1,-1.6934307E-2,-3.3383182E-1,-4.4574955E-1,-9.25102E-1,1.1977074E-1,-3.8060752E-1,6.3103205E-1,-4.3506593E-2,-4.010712E-3,8.397347E-1,6.325371E-1,3.8601747E-1,4.23409E-1,1.5995651E-1,-3.7136105E-1,1.109727E-1,2.7672052E-1,-4.7890656E-2,8.1859964E-1,-4.4881687E-1,1.5898123E-1,-1.6379768E-1,-2.1890979E-1,-5.7075906E-1,2.8858677E-1,-5.168021E-1,-9.9868906E-1,-3.7980446E-1,1.0145906E-2,-3.2387424E-2,-3.661078E-2,5.9843357E-3,1.6282666E-2,4.994684E-2,-2.711407E-2,2.5830898E-2,4.5878515E-2,3.2934587E-2,3.8237177E-2,2.1647686E-2,3.8761254E-2,1.7087324E-2,7.873463E-3,2.7116895E-2,4.52252E-3,2.6487244E-2,-8.79304E-3,-4.2965665E-2,1.3373417E-2,-4.0940843E-3,6.580605E-4,2.2005206E-2,4.135005E-3,-6.4372905E-3,5.7855215E-2,6.465265E-3,-1.5921762E-2,-3.1876937E-2,1.7981445E-2,-2.6860314E-3,1.3017379E-3,-1.7889688E-2,-2.8282104E-4,-1.8152062E-2,6.7931092E-3,-3.592038E-2,3.3147175E-2,-7.7020847E-3,8.380978E-3,-2.8740052E-2,-4.2872008E-2,-6.337431E-2,-3.298117E-2,3.924514E-2],"categories":[],"categories_nodes":[],"categories_segments":[],"categories_sizes":[],"default_left":[0,0,0,0,0,0,0,0,0,0,0,0,0,0,0,0,0,0,0,0,0,0,0,0,0,0,0,0,0,0,0,0,0,0,0,0,0,0,0,0,0,0,0,0,0,0,0,0,0,0,0,0,0,0,0,0,0,0,0,0,0,0,0,0,0,0,0,0,0,0,0,0,0,0,0,0,0,0,0,0,0,0,0,0,0,0,0,0,0,0,0,0,0,0,0,0,0],"id":13,"left_children":[1,3,5,7,9,11,13,15,17,19,21,23,25,-1,-1,27,29,31,33,35,37,39,41,43,45,47,49,51,53,55,57,-1,59,61,63,65,67,69,71,73,75,77,79,81,83,85,87,89,91,93,95,-1,-1,-1,-1,-1,-1,-1,-1,-1,-1,-1,-1,-1,-1,-1,-1,-1,-1,-1,-1,-1,-1,-1,-1,-1,-1,-1,-1,-1,-1,-1,-1,-1,-1,-1,-1,-1,-1,-1,-1,-1,-1,-1,-1,-1,-1],"loss_changes":[8.3359595E2,2.561304E2,2.763316E2,4.2604034E1,8.9251175E1,1.6037885E2,5.3710938E-2,1.1613542E1,3.853656E1,5.1400513E1,7.2686066E1,4.680894E1,5.1058258E1,0E0,0E0,8.555661E0,7.637718E0,6.2744446E0,1.6714386E1,2.4856476E1,3.3801258E1,2.7388727E1,2.4089798E1,2.7169725E1,2.2572456E1,2.5817032E1,1.6070557E1,6.112422E0,9.769414E0,5.0971813E0,7.814474E0,0E0,4.9214783E0,1.1237305E1,1.2375259E1,2.8539612E1,1.5291262E1,1.632852E1,2.5574131E1,1.48230915E1,1.1093889E1,3.2212877E0,1.153801E1,2.0481014E1,2.1165825E1,1.747573E1,2.8755875E1,7.590454E0,1.7952805E1,1.1706238E1,1.8512829E1,0E0,0E0,0E0,0E0,0E0,0E0,0E0,0E0,0E0,0E0,0E0,0E0,0E0,0E0,0E0,0E0,0E0,0E0,0E0,0E0,0E0,0E0,0E0,0E0,0E0,0E0,0E0,0E0,0E0,0E0,0E0,0E0,0E0,0E0,0E0,0E0,0E0,0E0,0E0,0E0,0E0,0E0,0E0,0E0,0E0,0E0],"parents":[2147483647,0,0,1,1,2,2,3,3,4,4,5,5,6,6,7,7,8,8,9,9,10,10,11,11,12,12,15,15,16,16,17,17,18,18,19,19,20,20,21,21,22,22,23,23,24,24,25,25,26,26,27,27,28,28,29,29,30,30,32,32,33,33,34,34,35,35,36,36,37,37,38,38,39,39,40,40,41,41,42,42,43,43,44,44,45,45,46,46,47,47,48,48,49,49,50,50],"right_children":[2,4,6,8,10,12,14,16,18,20,22,24,26,-1,-1,28,30,32,34,36,38,40,42,44,46,48,50,52,54,56,58,-1,60,62,64,66,68,70,72,74,76,78,80,82,84,86,88,90,92,94,96,-1,-1,-1,-1,-1,-1,-1,-1,-1,-1,-1,-1,-1,-1,-1,-1,-1,-1,-1,-1,-1,-1,-1,-1,-1,-1,-1,-1,-1,-1,-1,-1,-1,-1,-1,-1,-1,-1,-1,-1,-1,-1,-1,-1,-1,-1],"split_conditions":[4E0,3.5714285E0,1.65E2,1E0,4E0,1.2E1,1E0,4.3388373E-1,2.1666667E0,4E0,1.0166667E1,7E0,1.7266666E1,-3.137027E-2,-6.707093E-2,2.4E1,7.8743205E0,7.5E1,4E0,4E0,2.0250514E7,5E0,1.56E2,1E0,7.5E1,5.0076866E0,1.58E2,3E0,3.081E3,3E0,8E1,-4.010712E-3,5.9E1,3.7692308E0,-2.2252093E-1,1E0,2.0250904E7,9.5E0,2.1E1,2.9840848E0,2.025072E7,1.1961538E1,7E0,5.9E1,7.714286E0,6.234898E-1,4.1E2,2.482E3,-2.2252093E-1,5.9E1,9.749279E-1,1.0145906E-2,-3.2387424E-2,-3.661078E-2,5.9843357E-3,1.6282666E-2,4.994684E-2,-2.711407E-2,2.5830898E-2,4.5878515E-2,3.2934587E-2,3.8237177E-2,2.1647686E-2,3.8761254E-2,1.7087324E-2,7.873463E-3,2.7116895E-2,4.52252E-3,2.6487244E-2,-8.79304E-3,-4.2965665E-2,1.3373417E-2,-4.0940843E-3,6.580605E-4,2.2005206E-2,4.135005E-3,-6.4372905E-3,5.7855215E-2,6.465265E-3,-1.5921762E-2,-3.1876937E-2,1.7981445E-2,-2.6860314E-3,1.3017379E-3,-1.7889688E-2,-2.8282104E-4,-1.8152062E-2,6.7931092E-3,-3.592038E-2,3.3147175E-2,-7.7020847E-3,8.380978E-3,-2.8740052E-2,-4.2872008E-2,-6.337431E-2,-3.298117E-2,3.924514E-2],"split_indices":[18,20,6,11,14,12,12,36,20,11,24,11,28,0,0,2,29,5,19,12,10,24,9,13,31,25,6,18,9,19,31,0,6,24,37,11,10,16,2,21,10,28,12,6,28,37,5,9,37,6,36,0,0,0,0,0,0,0,0,0,0,0,0,0,0,0,0,0,0,0,0,0,0,0,0,0,0,0,0,0,0,0,0,0,0,0,0,0,0,0,0,0,0,0,0,0,0],"split_type":[0,0,0,0,0,0,0,0,0,0,0,0,0,0,0,0,0,0,0,0,0,0,0,0,0,0,0,0,0,0,0,0,0,0,0,0,0,0,0,0,0,0,0,0,0,0,0,0,0,0,0,0,0,0,0,0,0,0,0,0,0,0,0,0,0,0,0,0,0,0,0,0,0,0,0,0,0,0,0,0,0,0,0,0,0,0,0,0,0,0,0,0,0,0,0,0,0],"sum_hessian":[9.383685E3,6.289484E3,3.0942012E3,1.8750208E3,4.414463E3,2.7941797E3,3.000213E2,2.1684554E2,1.6581752E3,2.5237585E3,1.8907043E3,1.886696E3,9.074837E2,5.7394676E0,2.9428183E2,1.4255054E2,7.4295E1,4.5121484E2,1.2069603E3,1.5070413E3,1.0167174E3,1.389765E3,5.0093933E2,1.0476066E3,8.3908954E2,4.8664853E2,4.2083517E2,9.03579E1,5.219263E1,5.0338573E1,2.3956427E1,6.9988656E0,4.4421597E2,4.535132E2,7.5344714E2,9.0796814E2,5.9907306E2,1.734213E2,8.432961E2,3.4355417E2,1.0462108E3,1.3639564E1,4.8729977E2,4.762727E2,5.713338E2,5.67899E2,2.7119058E2,4.2268436E1,4.443801E2,3.6916995E2,5.1665215E1,8.297096E1,7.386938E0,3.0223925E1,2.1968706E1,2.9715443E1,2.062313E1,1.2800337E1,1.1156089E1,3.0457947E2,1.3963652E2,2.6909628E2,1.8441692E2,7.334608E1,6.801011E2,2.8226892E2,6.256992E2,5.0660944E2,9.2463646E1,1.2590332E2,4.751798E1,4.6539035E2,3.7790576E2,1.3253343E2,2.1102075E2,3.9957193E2,6.466389E2,8.139777E0,5.4997864E0,2.916873E2,1.9561247E2,2.4461197E2,2.3166074E2,2.8938037E2,2.8195343E2,2.3014876E2,3.377502E2,4.678202E1,2.2440855E2,2.2483374E1,1.9785065E1,3.428562E1,4.1009448E2,2.4773872E2,1.2143124E2,4.242569E1,9.239526E0],"tree_param":{"num_deleted":"0","num_feature":"38","num_nodes":"97","size_leaf_vector":"1"}},{"base_weights":[-6.72241E-4,2.0078781E-1,-4.1346017E-1,4.5565593E-1,5.6358106E-2,-2.6025897E-1,-8.547784E-1,6.297928E-1,3.6125597E-1,1.4859389E-1,-1.4697544E-1,-4.9885433E-2,-4.5933774E-1,-4.5466366E-1,-1.0058523E0,2.0583247E-1,7.3731756E-1,6.5603244E-1,3.1104878E-1,2.655362E-1,-1.3156683E-2,1.6177537E-1,-2.8510758E-1,1.7955993E-1,-1.5783729E-1,-2.8974134E-1,-6.878904E-1,-1.9180398E-1,-9.2246157E-1,-8.7133443E-1,-1.217607E0,-1.9780625E-1,3.298492E-1,7.5045234E-1,-2.8447736E-2,1.3437232E-1,7.707963E-1,6.813964E-1,2.7267313E-1,3.9279148E-1,1.0218668E-1,8.460252E-2,-2.5859803E-1,5.9687483E-1,9.628515E-2,-2.1127866E-1,-6.2411284E-1,3.13784E-1,-9.426382E-2,8.303201E-1,-1.8225223E-1,-3.6779875E-1,4.6986923E-2,-8.731759E-1,-5.676138E-1,-5.131987E-1,2.1119855E-1,-5.053114E-1,-1.2129973E0,-7.195923E-1,-9.874653E-1,-1.4905033E-2,-6.2581025E-2,6.018578E-3,-4.999734E-2,1.5902849E-3,2.7098188E-2,4.6710234E-2,3.4276333E-2,1.5866889E-2,-2.934284E-2,7.521245E-3,3.9475273E-2,-2.5168886E-2,4.004754E-2,2.505443E-2,1.0186868E-2,1.6402658E-2,4.0807392E-2,8.699047E-3,-1.7156428E-2,-3.523003E-2,5.0907657E-3,-4.8810992E-2,-8.954661E-3,-2.842789E-3,4.4346273E-2,-1.8333575E-2,9.431192E-3,-2.6189862E-3,-1.8297134E-2,-5.6023587E-2,-2.4021542E-2,-5.072792E-3,2.0054735E-2,-1.3688686E-2,2.5185315E-2,-0E0,5.9550088E-2,-4.808068E-2,-8.011238E-3,-1.2677684E-2,-2.9663494E-2,1.7815603E-2,-1.2161127E-2,-4.8062462E-2,-2.9217249E-2,-2.0669622E-2,-3.981192E-2,2.7531115E-2,-3.0736113E-2,4.289155E-3,4.4832107E-2,-4.0824544E-2,7.2299256E-3,-6.481897E-2,-2.3214228E-2,-5.263331E-2,-2.7873596E-2,-5.0992228E-2,-6.460648E-3],"categories":[],"categories_nodes":[],"categories_segments":[],"categories_sizes":[],"default_left":[0,0,0,0,0,0,0,0,0,0,0,0,0,0,0,0,0,0,0,0,0,0,0,0,0,0,0,0,0,0,0,0,0,0,0,0,0,0,0,0,0,0,0,0,0,0,0,0,0,0,0,0,0,0,0,0,0,0,0,0,0,0,0,0,0,0,0,0,0,0,0,0,0,0,0,0,0,0,0,0,0,0,0,0,0,0,0,0,0,0,0,0,0,0,0,0,0,0,0,0,0,0,0,0,0,0,0,0,0,0,0,0,0,0,0,0,0,0,0,0,0],"id":14,"left_children":[1,3,5,7,9,11,13,15,17,19,21,23,25,27,29,31,33,35,37,39,41,43,45,47,49,51,53,55,57,59,61,63,65,67,-1,69,71,73,75,77,79,81,83,85,87,89,91,93,95,97,99,101,103,105,107,109,111,113,115,117,119,-1,-1,-1,-1,-1,-1,-1,-1,-1,-1,-1,-1,-1,-1,-1,-1,-1,-1,-1,-1,-1,-1,-1,-1,-1,-1,-1,-1,-1,-1,-1,-1,-1,-1,-1,-1,-1,-1,-1,-1,-1,-1,-1,-1,-1,-1,-1,-1,-1,-1,-1,-1,-1,-1,-1,-1,-1,-1,-1,-1],"loss_changes":[7.762605E2,2.3079749E2,2.0643951E2,3.673413E1,7.518079E1,9.5211624E1,4.6565186E1,3.581311E1,2.133995E1,5.2190388E1,5.3452766E1,2.7522152E1,4.480635E1,2.6560467E1,1.3908752E1,8.336462E0,1.1727203E1,1.24372635E1,1.7515724E1,3.314701E1,2.7860601E1,1.0863218E1,2.1306831E1,1.3145336E1,1.8464819E1,1.7798264E1,9.921326E0,1.8817543E1,8.104988E0,4.680847E0,5.8591003E0,1.041706E1,7.882509E0,6.041168E0,0E0,5.747685E0,1.6854706E0,1.7439892E1,1.783432E1,2.3983505E1,2.2611774E1,1.1355368E1,1.840865E1,9.690607E0,1.4636517E1,1.7460255E1,9.707611E0,8.784853E0,1.2942336E1,5.5238047E0,1.2266684E1,1.373365E1,1.1718703E1,3.5870667E0,1.0041199E1,9.376053E0,5.3263006E0,7.535136E0,1.4075012E0,7.416519E0,5.0653687E0,0E0,0E0,0E0,0E0,0E0,0E0,0E0,0E0,0E0,0E0,0E0,0E0,0E0,0E0,0E0,0E0,0E0,0E0,0E0,0E0,0E0,0E0,0E0,0E0,0E0,0E0,0E0,0E0,0E0,0E0,0E0,0E0,0E0,0E0,0E0,0E0,0E0,0E0,0E0,0E0,0E0,0E0,0E0,0E0,0E0,0E0,0E0,0E0,0E0,0E0,0E0,0E0,0E0,0E0,0E0,0E0,0E0,0E0,0E0,0E0],"parents":[2147483647,0,0,1,1,2,2,3,3,4,4,5,5,6,6,7,7,8,8,9,9,10,10,11,11,12,12,13,13,14,14,15,15,16,16,17,17,18,18,19,19,20,20,21,21,22,22,23,23,24,24,25,25,26,26,27,27,28,28,29,29,30,30,31,31,32,32,33,33,35,35,36,36,37,37,38,38,39,39,40,40,41,41,42,42,43,43,44,44,45,45,46,46,47,47,48,48,49,49,50,50,51,51,52,52,53,53,54,54,55,55,56,56,57,57,58,58,59,59,60,60],"right_children":[2,4,6,8,10,12,14,16,18,20,22,24,26,28,30,32,34,36,38,40,42,44,46,48,50,52,54,56,58,60,62,64,66,68,-1,70,72,74,76,78,80,82,84,86,88,90,92,94,96,98,100,102,104,106,108,110,112,114,116,118,120,-1,-1,-1,-1,-1,-1,-1,-1,-1,-1,-1,-1,-1,-1,-1,-1,-1,-1,-1,-1,-1,-1,-1,-1,-1,-1,-1,-1,-1,-1,-1,-1,-1,-1,-1,-1,-1,-1,-1,-1,-1,-1,-1,-1,-1,-1,-1,-1,-1,-1,-1,-1,-1,-1,-1,-1,-1,-1,-1,-1],"split_conditions":[4E0,4E0,3E0,2.5E0,4E0,8E0,1E0,1E0,2.8E0,4E0,6.3E0,1E0,1.2E1,1.1E1,4E0,1.531E3,3E0,2.0250516E7,-2.2252093E-1,4E0,1.6E1,4.25E0,2E0,6E0,3.1E0,2.025083E7,2.025063E7,2.711E3,2.0636364E1,1.1E1,-2.2252093E-1,4.25E0,5.7735026E-1,1.5E0,-2.8447736E-2,4.106E3,6E0,-8.660254E-1,1E1,9.749279E-1,1.3571428E1,2.025043E7,1E0,2.9439204E0,3.7379692E0,9.3E0,6.251108E0,2.025043E7,3.953E3,1.5670213E0,-2.7E1,8E0,8.233334E0,3.495E3,4E0,7.37E2,4.779E3,1.5461538E1,4E0,2E0,2.5E1,-1.4905033E-2,-6.2581025E-2,6.018578E-3,-4.999734E-2,1.5902849E-3,2.7098188E-2,4.6710234E-2,3.4276333E-2,1.5866889E-2,-2.934284E-2,7.521245E-3,3.9475273E-2,-2.5168886E-2,4.004754E-2,2.505443E-2,1.0186868E-2,1.6402658E-2,4.0807392E-2,8.699047E-3,-1.7156428E-2,-3.523003E-2,5.0907657E-3,-4.8810992E-2,-8.954661E-3,-2.842789E-3,4.4346273E-2,-1.8333575E-2,9.431192E-3,-2.6189862E-3,-1.8297134E-2,-5.6023587E-2,-2.4021542E-2,-5.072792E-3,2.0054735E-2,-1.3688686E-2,2.5185315E-2,-0E0,5.9550088E-2,-4.808068E-2,-8.011238E-3,-1.2677684E-2,-2.9663494E-2,1.7815603E-2,-1.2161127E-2,-4.8062462E-2,-2.9217249E-2,-2.0669622E-2,-3.981192E-2,2.7531115E-2,-3.0736113E-2,4.289155E-3,4.4832107E-2,-4.0824544E-2,7.2299256E-3,-6.481897E-2,-2.3214228E-2,-5.263331E-2,-2.7873596E-2,-5.0992228E-2,-6.460648E-3],"split_indices":[18,20,26,20,15,11,15,12,24,11,24,12,12,11,30,8,18,10,37,12,19,24,30,3,24,10,10,7,24,12,37,24,17,16,0,8,31,35,2,36,20,10,12,21,29,24,29,10,9,25,33,17,28,9,22,8,7,24,30,3,22,0,0,0,0,0,0,0,0,0,0,0,0,0,0,0,0,0,0,0,0,0,0,0,0,0,0,0,0,0,0,0,0,0,0,0,0,0,0,0,0,0,0,0,0,0,0,0,0,0,0,0,0,0,0,0,0,0,0,0,0],"split_type":[0,0,0,0,0,0,0,0,0,0,0,0,0,0,0,0,0,0,0,0,0,0,0,0,0,0,0,0,0,0,0,0,0,0,0,0,0,0,0,0,0,0,0,0,0,0,0,0,0,0,0,0,0,0,0,0,0,0,0,0,0,0,0,0,0,0,0,0,0,0,0,0,0,0,0,0,0,0,0,0,0,0,0,0,0,0,0,0,0,0,0,0,0,0,0,0,0,0,0,0,0,0,0,0,0,0,0,0,0,0,0,0,0,0,0,0,0,0,0,0,0],"sum_hessian":[9.330258E3,6.2706626E3,3.0595955E3,2.2663472E3,4.0043152E3,2.2736992E3,7.858961E2,7.923394E2,1.4740078E3,2.7554316E3,1.2488835E3,1.1069498E3,1.1667494E3,2.1778375E2,5.6811237E2,1.6166554E2,6.306738E2,2.1071767E2,1.2632902E3,1.5988391E3,1.1565927E3,3.8570206E2,8.631815E2,3.5345306E2,7.534968E2,6.7261304E2,4.941364E2,1.4137674E2,7.640701E1,3.539599E2,2.1415245E2,3.7527626E1,1.24137924E2,6.253138E2,5.3600564E0,3.8937954E1,1.7177971E2,1.1522111E2,1.1480691E3,8.9678735E2,7.0205176E2,8.277881E2,3.288045E2,4.813711E1,3.3756494E2,7.1172314E2,1.5145834E2,2.3723671E2,1.1621634E2,1.647761E1,7.370192E2,5.461271E2,1.2648598E2,1.8924878E2,3.0488763E2,7.848566E1,6.2891087E1,3.375885E1,4.2648167E1,1.600651E2,1.938948E2,8.440598E0,2.0571185E2,2.799737E1,9.530254E0,5.276659E1,7.137134E1,1.5586562E2,4.6944818E2,3.2062756E1,6.8751993E0,5.7146387E0,1.6606508E2,9.895926E0,1.0532518E2,2.6291708E2,8.85152E2,7.81126E2,1.15661385E2,6.0582336E2,9.622841E1,1.5840178E1,8.1194794E2,3.0419405E1,2.983851E2,1.5182109E1,3.2955E1,5.496469E1,2.8260025E2,3.526949E2,3.5902826E2,3.0792187E1,1.2066615E2,4.096109E1,1.9627562E2,9.03461E1,2.5870235E1,5.6027117E0,1.0874897E1,1.7788498E1,7.192307E2,3.6558145E2,1.805456E2,6.1172825E1,6.5313156E1,1.4119254E2,4.8056244E1,1.856853E2,1.1920233E2,5.9810166E0,7.250464E1,5.51893E1,7.7017837E0,2.258588E1,1.1172969E1,3.693797E1,5.7101974E0,4.8604595E1,1.11460495E2,1.8637054E2,7.524261E0],"tree_param":{"num_deleted":"0","num_feature":"38","num_nodes":"121","size_leaf_vector":"1"}},{"base_weights":[4.574355E-3,1.1448277E-1,-6.5181893E-1,3.3067217E-1,-8.760607E-2,-4.944508E-1,